1285 256
! -159.98803999999996 16.430139999999998 131.4477 84.77979 830.432 209.29898 -193.26443 -216.88503 -351.12503 30.262247 -71.37621 118.62906 -157.2852 -594.8292 -8.933117 -67.961754 143.19063 -179.66791 -0.8364216 -40.75101 -57.553867 5.5416727 141.10146 79.20647 -66.45170999999999 -78.56151 -115.968544 -131.62476 -24.747993 66.760254 -199.9143 20.998932 81.68001 5.1351566 240.88521 147.61194 -76.59615 23.356043 47.22138 144.17897 8.75115 361.37314 150.61221 -48.923733 -97.014435 178.33133999999995 5.179995 47.653896 -188.25803 417.39417 -40.234375 128.38075 -135.03343 236.01248 -150.96216 150.4212 124.86875 -5.0978947 -0.041198224 -56.24888000000001 -68.57799 -85.99584 -301.0923200000001 93.07337 -65.70418000000001 112.53211 133.86618 12.83086 -134.01303 -116.45281 -12.599327 -133.63342 -29.010372 -94.59509 181.46971 -106.7822 36.744514 82.139046 -113.33906 -12.737224 12.28415 788.7438400000002 5.357553500000002 31.016644 -85.33673 90.16753 31.789564 -41.051018 -21.476068 125.59269 -9.505887 22.30079 41.01287 133.52792 204.09206 -61.818966 174.87335 -163.65096 -77.77616 85.13879 -136.39993 -421.91528 95.19673 138.27972 104.000755 -43.343952 -24.531693 92.133286 -131.01082 74.22161 71.64584 -492.21362 123.74577 167.41021999999995 -50.972458 5.785812 -369.5062 -64.18375999999999 83.70831 -176.82912 -111.0872 188.7463 -172.9825 13.358309 -104.44216 -28.510368 -75.44494 315.219 -10.253583 -35.00992 -56.966766 -14.662828 -37.88251500000001 -29.116583 -86.78517 73.22771 23.72325 -12.727003 19.587284 -102.11546 36.02094 -10.2106285 54.571712 45.921635 35.18989000000001 7.427678599999999 26.86425 -57.869972 -22.073586 1.7715793999999998 0.26231968 50.879272 66.31674 46.050198 34.461414000000005 49.205574 -20.859665 74.31574 67.23583 -8.8930235 41.5385 -97.5757 3.6634133 -56.487747 -30.036755 74.72615 -0.16132426 -40.28523 50.473293 18.786688 33.636765000000004 -74.83015 -77.90850999999998 9.135764 -10.283555 44.664875 -12.72191 56.62501 28.696022 14.641199 65.35882 -74.20602 19.011732 -65.84185 -17.221148 -30.206825 -88.21583000000003 35.57204 159.7788 2.7609153 51.497257 -57.43201 -32.148262 23.694473 8.801972 -3.2294981 55.49836 -48.68866 -4.0417074999999985 -12.346879 21.394556 77.7851 62.779194 -0.10591149 -152.97527 46.81331 -53.890003 40.34813 -54.498997 -14.722809 -27.434053 41.117992 2.7485325 30.872862 -8.215914999999999 24.411867 -13.270152 37.874138 -13.273653 -15.215194 16.593982999999998 -38.03503 3.2703485 22.411957 13.357120000000002 25.052044 23.807170000000006 28.135963 -90.109314 -4.089947 3.7839613 18.172594 -4.0788817 17.093493 0.4386229999999999 -2.0828714 39.354774 65.38913000000001 11.828429 58.05403 9.9721 -0.5931018 -81.00725600000001 -15.179352 70.98662 -106.83381 16.353716 49.78285 75.53673 -13.906254999999998 98.5597 68.59799 47.56100000000001 -40.35297 -57.92793 47.84508
" -13.632203 124.04286 -43.2597 -105.511475 -116.941765 -34.360126 154.85867 98.7414 -8.491511000000001 -82.51241 -26.018747 -111.77555 -21.449732 -109.56111 60.84291500000001 -76.28248 37.370697 84.97296999999998 81.68749 11.606232 27.55451 -30.869020000000006 15.378282 -6.6762679999999985 -38.62903 -58.43865600000001 13.601911 -23.360281 12.37097 -90.63785 -101.76155 22.826054 39.819653 6.3610362999999985 19.249105 -7.4427724 -58.156784 46.1336 2.280111 -158.32506 52.698986 -6.997748 8.747406 30.86155 130.74324 68.99868000000001 -49.949677 2.305544 -18.912066 -69.63773 -21.252127 54.41331 -35.738144 82.19382 14.887279500000002 -154.03592 48.583584 69.6486 107.83098 -55.950497 204.23804 95.17068 64.59966999999999 106.71876 60.033188 -73.346405 16.115894 -32.46247 71.49019 -6.791352000000002 -7.4063144 69.53087 -49.696117 -78.903015 109.06892 -56.788696 2.0755792 -47.805843 -35.30095 37.651512 -1.7927049 -70.27996999999999 -224.57724 128.45125 243.36235 -27.293118 95.865906 52.089363 -47.826725 63.40328 -89.44951 -5.873065 30.379137 27.824228 326.16708 -21.069477 -10.111741 -31.968899 21.812363 28.561625 -39.993633 259.5231 52.59195 246.1365 -137.85556 -13.260011 13.358138 6.479289 -36.652916 -76.79186999999997 59.32516999999999 -181.81712 -25.5905 97.77861 31.550354 -59.60296 -52.647507 -36.625862 -41.436474 -13.85494 -11.341391 -45.28214000000001 -96.30698 0.82707626 -33.331215 -70.09059 47.541756 131.2765 -3.868073 -25.632273 -29.120457 -3.1425970000000003 12.425591 7.956158599999998 -15.449284 10.558908 7.0789532999999984 20.65348 22.181482 -38.665386 8.468910000000001 -13.733002 17.146065 3.8535976 -13.781957 -18.096704000000006 -2.957946 -11.647934 -3.670712 -14.745681 -1.4904337 11.186537 -5.7613515999999985 3.8128505 15.977519 35.510113 -1.4527943 31.9007 23.03029 6.653173 2.4093187 25.126558 -15.758004 -6.3617315 -0.6025329 6.171195 19.053244 -28.483322 -9.991045 -35.618645 -12.99456 -43.73395 -21.223175 17.773310000000006 -22.588854 7.513459700000001 -47.80971 10.655836 -11.977473 -14.793271 -4.5323315000000015 -1.8207412 6.037531 -50.999065 10.814295 6.764683 -32.74216 30.806013 22.691683 13.875209 32.12834 -5.4217114 5.5689654000000015 25.217339000000006 7.5053387 -12.517541 15.400313 -14.652566 38.16788 -30.943329 30.752829 -4.500593 24.458658 -18.515879 -9.351454 15.847658 6.9411535 -0.6337567 28.48933 18.40356 -20.290491 25.469954 -18.375885 -7.374006 14.152068 -18.106003 -14.265515 -3.7608075 12.419225 -8.241011 -18.469332 -13.219931 -17.832653 -12.641029 17.706985 -23.194769 -1.6329098 13.423909 -29.747566 52.400112 6.5680190000000005 37.439194 -3.4897053 4.1329927 12.139938 11.240265 6.014451 12.629908 -20.989136 -7.7441520000000015 -1.9440773 14.329579999999998 -21.73494 -7.340385 1.2173245 -27.372515000000003 22.130291 1.4097118 20.983604 -18.19314 23.257645 8.371457000000001 -5.934669 -6.765258 -15.628054999999998 42.99798
# 34.13544 129.68846000000002 -199.43973 253.72414 241.53659 92.442154 -500.21362 28.53762 -119.666885 23.566694 -491.1396 -194.60979 -58.176125 -285.92276 158.83206 -64.136826 -96.15008 -83.15813 99.26215 44.924 2.1596284 114.36773 127.23212 -114.14948 81.83912 81.83937 27.124474 339.01035 -23.507263 -228.73077 -86.61676 -165.40161 82.145744 198.45894 198.28854 -60.43745799999999 -37.89877 -17.332024 528.75555 -187.82742 -75.89090999999998 -152.90128 114.443665 150.81535 16.475481 500.90283 77.02951999999998 198.74358 565.48 333.9937700000001 -187.39192 114.17418 -108.36275 19.421442000000006 -123.65715 -53.372818 -103.68617 -5.839531 235.96994 -116.428764 226.00461 -253.53694 -121.92472 9.4305 -167.15996 43.137066 4.5699 -20.81977 11.8178 39.425026 -107.793686 -100.04601 12.973567 -93.492 -9.050632 28.681204 74.95785500000002 -43.69583 12.183772 1.6456729 22.576302 196.73427 -84.90366999999998 -176.58908 -37.838734 78.291466 -216.67262 -243.13911 -57.796803 51.92209 53.080387 -156.05633999999995 -197.75089 -213.2619 -16.391243 -109.24632 -13.239702 -33.032867 -214.4493 238.13918 -105.98268 -509.3161 -98.296646 74.97771 261.96286000000003 -122.08167 -17.62485 -44.029526 -131.42038 -104.48801 23.572937 -448.1819 118.24533999999998 390.89597 311.77203 115.89878 -83.43646 -253.18813 -23.43619 107.35529 165.99673 31.635122 -167.27936 106.5041 -125.61535 -140.29439 1.9356583 366.0396 -10.051993 -161.58525 -91.168976 -6.9486539999999986 65.79911 -16.958006 -153.8469 47.828125 83.82155999999998 13.952565 49.626705 -156.86449 -10.875078 -155.12611 34.423874 6.4754906 27.664087 -28.938232 44.18383 -22.902185 -24.142515 -39.072956 -18.71151 20.015652 29.347971 56.321487 74.268364 147.1124 17.416656 141.54366000000005 84.261604 -33.243908000000005 -1.4385178 -82.97981999999998 -26.379295000000006 10.530139 7.612799000000001 83.814926 90.85823 -7.7619405 27.068672 -113.43046 67.28625 -48.092373 -75.80996999999998 -2.3271487 -27.605375 28.766445 -40.114746 92.59296 10.779889 -25.25921 18.16646 -85.18949 42.480427 -168.98045 -9.115548 -26.232218 -198.67815 93.5235 109.34615 24.423618 55.622524 -51.27385 18.665277 35.9291 40.923473 -94.62424 31.159073 27.681263 46.428886 -29.440311 23.569956 87.05597 44.45571500000001 -16.933067 -113.82031 42.421658 -42.93252 -16.019241 28.423185 37.901722 -89.7046 55.30401 -43.47611 9.696259 66.108315 -42.10217 -62.48144 -25.341343 11.427625 -14.057975 7.635689 -61.85154 -50.409325 -27.486753000000004 20.048853 -24.434443 40.874218 21.66971 -95.19272 99.41969 25.990082 58.05905 -27.330976 60.39796 52.85223000000001 -48.24632 28.626732 50.22217 -3.5854926 46.22554 -32.636070000000004 26.021517000000006 -63.84044599999999 -31.6069 73.62639 -167.03387 44.074306 -1.1029992 42.907413 -32.17783 84.712746 7.0577320000000014 1.0148007 -71.8624 -60.154915 129.49612
$ -143.14407 150.35631 -252.22983 150.80739 534.75 27.07425 -7.5442314 361.03302 -437.86032 102.92169 -135.98178 67.17731500000001 -39.441486 -675.2078 -118.02243 -47.440704 110.202965 -174.88226 -4.3479514 17.213558 -24.271889 197.00179 92.13454 -14.746928 -10.750183 -7.5435104000000015 -22.934746 -88.71733 -58.817642000000006 -64.11661 -15.578401 -23.177853 58.12869300000001 36.92621 202.94025 112.34295 -111.05396 76.43287 67.62591 120.34048500000002 119.53637 161.25867 -13.876057 -56.72925 65.4426 702.08185 107.64458 -148.30737 -297.57434 274.21783 -24.251024 148.93332 -27.999477 394.35217 -129.45297 75.66541 35.113987 6.577572 592.96844 -134.69168 -27.390617 -48.798885 -116.95358 179.42334 22.62059 178.2564 199.10146 27.600834000000006 -91.06387 -127.87052 -202.27293 -5.5764559999999985 67.02711 33.39313 48.07443 -129.91046 20.55783 110.16108 -41.176605 -62.00886 -59.524498 298.8917 -1.7982731 223.43198 -56.743176 -53.862038 149.39317 -83.74369 27.619577000000003 14.350863 -26.487368 -48.30636 -83.541115 18.28849 1.7986144 -26.524448 153.22048999999996 -31.8567 30.253096000000006 -66.41585 -66.40939 -591.27295 49.958523 144.85013999999995 155.5048 -50.500824 -56.45885 48.831203 -114.537155 42.402996 117.29013 -612.44244 25.682484 117.65458999999998 -177.65927 26.762403000000006 -462.5324 -43.001358 12.392962 -11.354432 -95.56335 61.63203000000001 -76.9426 54.678284 83.02711 -37.73016 -12.869884 191.62457 -31.217844 -89.172195 -7.281156 -39.30955 65.15195 -39.389717 -120.682526 74.342674 74.44021 -0.02188778 36.98367 -127.18525 20.624176 -64.02189 24.847618 32.825886 39.315098 2.095548 53.67863000000001 -45.11075 0.5653646999999999 -5.804425 -2.6919785 9.466091 11.881509 31.021507 54.262115 105.11315 11.072612 103.71279 33.55296 -14.875315 46.458073 -95.43171 8.601151 -31.175694 -9.267794 48.394104 35.120743 -11.719898 10.001092 -31.485893 50.71194000000001 -81.61746 -129.54683 -35.23946 9.750005 -1.8645785 -80.05854000000002 107.4331 32.897354 -26.932127 9.128398 -54.83915699999999 7.250384299999999 -101.3743 -8.364913 -10.644439 -105.50201 76.65971 212.89067000000003 -13.268256 53.049515 -46.238045 -6.8122845000000005 14.72695 25.188808 -23.079397 15.555019 -19.292715 48.255096 -20.707489 44.71237 58.672947 61.91405 -9.168306 -105.176956 31.34852 -48.54215 24.975445 1.3214933 58.71715 -52.394787 46.04154000000001 -55.744694 58.01293 214.64757000000003 -15.176612 -16.843726999999998 26.774784000000004 29.2192 -9.016335 -11.732334 -43.180695 -52.898575 28.508957 31.87603 10.9619255 21.676653 46.94672 -129.45481999999998 36.772602 -8.036086 32.101208 -2.4843428 3.2605507 55.465122 8.985435 5.2971864 81.862144 32.894203000000005 74.75822 -4.8142347 14.328712 -53.106747 -5.814812 49.098316 -120.693565 44.3282 22.122484 35.603626 -41.202644 115.77816 52.55443199999999 23.694641 -15.459965 -50.853405 77.24065999999998
% -119.68993 -49.78555 -285.73685 319.5666 264.84473 -1.7996918999999998 -113.83735 242.70294 -469.53186 -5.856908 -169.22913 -153.57535 -124.50346 -354.33224 115.918846 115.55726 -251.23737000000003 -163.97835 -74.16866999999998 178.34944 10.525763 115.12127 98.1281 -38.690594 24.088420000000006 102.34401 61.331245 -81.59966 -14.381176000000002 -94.53131 -24.596964 -53.155586 124.891174 124.821846 63.28989 95.87872 -12.283909 -197.70274 141.12102 -70.26751999999999 62.270718 26.774128 41.459774 77.07468 174.81136 556.84644 77.57579 100.35169 185.29231 439.50998 87.66058000000002 350.4927 -8.666868 101.09264 15.861685 -286.39697 -19.48187 -18.451468 342.26312 15.883411 218.93661 -109.90892 105.715065 161.49323 -183.99725 258.65677 67.52743000000001 134.71515 -112.83143 122.10031 -109.41027 -68.09313 43.75789 -112.74004 -84.19249 109.65685 -30.401148 -156.33531000000005 -199.85283 -12.839881 15.285735999999998 -7.9547690000000015 198.68259 73.49878000000002 -213.2667 74.89808000000002 87.97636999999997 21.054218 -55.83514 38.31489600000001 -42.773605 -218.43004 -253.68451 -109.6371 -14.452189 -53.417934 6.6911435 20.667791 67.13136999999999 -9.144926 31.873022 -167.05385 -123.454506 -68.81300999999999 -65.16508 -57.645927 86.40335999999998 -196.1706 -181.4602 -133.93163 24.657753 -317.4511 -60.42760500000001 332.51828 131.36671 45.41253 -466.83932 -64.21401999999999 1.4249673 35.115936 -111.81992 -176.23447 -158.19968 5.6953373 -91.26967 22.68731 23.843855 164.52455 -52.29375 -129.36661 -57.92329399999999 -12.756283 82.75265 -38.869083 -134.35965 -27.508455 46.29342000000001 1.0467834 25.55059 -102.79162 -42.22552 -102.61952 11.571841 10.294032 61.191067 -7.0250020000000015 53.93286 -26.00274 -34.057297 -11.829807 21.786259 31.209972 13.647410999999998 27.513353 69.64258000000001 118.25425 -0.76321745 128.90933 52.185265 -26.383656 4.98398 -77.45976 -28.21667 -18.074741 -23.041073 57.203724 19.323702 -30.943987 24.322128 -28.572405 17.780264000000006 -39.440792 -57.553833 -11.156186 -44.717648 -0.9575327 -7.1839647 40.960247 1.2179787 -47.405228 -16.511282 -90.79249 23.099812 -98.370804 -11.267495 8.112162 -145.04295 97.63076 129.22997 7.802184599999999 57.64896 -46.99141 12.123312 30.346342 38.071358 -19.232851 29.762838 1.0677816999999998 49.15686 -15.627116 -10.638791 -10.217035 37.59802 37.551945 -60.78882 43.115494 -25.50008 -26.3513 13.263729 27.216002000000003 -74.8173 27.973478000000004 -15.993023999999998 27.841490000000004 134.80801 -54.73586 -8.787735000000001 -21.905098 29.673725 8.019517 21.214508 -48.416557 -15.313868 0.8006996999999999 15.993163 12.801685 43.86139 16.89413 -57.847824 38.36910200000001 1.5453131000000002 44.855236 -0.014153778999999997 6.342167 62.345737 -62.123535 10.964526 54.33450300000001 -13.637738 33.416622 -42.03258 38.47128 -46.18938 -33.324207 53.32943 -39.78608300000001 51.769283 41.1716 52.322727 -4.853675 122.92664 19.284805 2.870751 -56.002777 -23.646599 63.746613
& 22.32286 -298.50357 -225.71004 348.75348 187.141 114.98915 21.357548 175.80408 -359.95624 176.82408 58.61097 -44.743763 222.4626 -260.1658 -40.822166 29.252373 92.25544 -55.977997 -38.95012 107.64715 78.50735 -52.88264 61.74046 -96.13249 150.733 102.58598 -41.159348 -74.38364 27.19648 -62.15509399999999 -59.831116 -14.977997 -31.70776 43.479836 311.33377 -19.852177 -88.229935 5.328869 282.7315 -154.24553 128.15236000000002 20.779003 -199.25676 96.29092 207.34743 531.9847 72.96334 -53.902966000000006 119.04014 347.0726 -115.860016 205.62216 197.92296 255.0024 -145.32538 -67.904655 26.613482 -47.39505 621.6428 -97.147446 76.60817 -76.18208 134.23868000000002 174.06468 -65.60884 -24.540192 -3.123197 -6.8891673 -33.00265 68.65437 19.049961 -178.23772 -7.4826474 -95.95082 -40.124382 96.46505 171.49721 73.46765 -124.15379 -110.66315 112.93523 -175.03815 40.812122 44.62461500000001 187.41399 28.912376 100.27246 -109.45788600000002 -82.66263599999998 7.0632104999999985 56.30348000000001 -183.09741 -297.53397 11.344771 -63.542625 -75.14228 12.636233 20.7073 46.748016 39.39069 -260.78036000000003 -325.784 -124.3235 258.2215 122.70674 21.146917 76.37481 -31.381199 -121.44735 -34.581509999999994 80.46521 -395.88123 -59.25809 251.68738 16.518871 -8.262080000000001 -513.2869 51.567764 -41.17559 45.20532 -125.34053 -16.769472 -329.4912700000001 2.489743 9.85684 231.18526 43.944786 80.868645 -31.013422 -154.15186 -29.025751 -30.942278 35.78841 -24.333355 -77.40845999999998 4.8769364 51.391586 6.2923225999999985 55.506 -49.505074 -8.141163 -112.131775 17.363267999999998 -20.882992 43.671417 9.771847 84.1557 -7.4920197 1.2870034 -52.578697 42.508083 -4.294176599999999 -3.8425145 36.623024 44.543575 59.052654 -8.688624 74.36819 43.744026 -17.881632 2.288411 -12.618583 -3.4132931000000006 -14.377695 6.3428583 61.006496 66.71932 12.793827 26.040825 -39.08402 -7.945259 -14.896264000000002 -37.415985 -18.866081 -1.7453697 -9.580622 -12.819636 62.119076 55.674927 -63.103058 -24.769964 -50.768917 -14.497751 -118.751915 5.611496400000001 -18.675177 -67.40819499999999 42.681694 101.469246 -7.013908 39.52214 -25.34726 24.375002 39.40685 28.961292 -39.654167 9.386883 23.052074 34.01132 -48.920868 51.3117 13.384162 49.230022 -31.820889 -23.362823 45.310925 1.0828236 -33.75034 -3.1494546000000003 82.691666 -65.065765 52.46312 -54.204315 15.473204 180.24802 -39.87554 -44.51299 4.9710546 32.83043 -10.015444 -9.007242 -42.870605 -82.219505 1.4080746000000002 61.765747 12.922303 15.09369 29.270222 -83.58915999999998 21.849047 42.069386 42.47245 -6.516236 11.230229 25.553694 -14.776017 -13.886171 25.752453 -8.226338 56.53566 1.9002883 10.030199 -44.43563 -33.04742 17.966469 -75.873474 4.4466333 13.692545 23.073435 2.3253112 77.457306 1.7766453999999998 13.614786 -21.392904 -58.75839200000001 69.04306
' -145.56932 127.25421 106.21338 175.25037 171.50789 178.91241000000005 -15.092484 -253.94194 -174.83122 -1.4406587 5.039268 54.87546 -110.62087 -301.6883200000001 168.73521000000005 -17.909021 -1.2394502 -17.300138 -129.75276000000002 -98.979324 -12.177377 -97.815834 168.3459 175.61607 -95.79782 -49.34576 -155.63586 -35.712425 3.5473837999999995 372.58755 -8.204488000000001 129.12617 7.692233 -139.00081 145.85553000000004 62.314926 -34.116890000000005 -110.967285 -58.686214 -71.86335 -70.27604000000001 -4.6630487 231.3314 -123.89333 13.969023000000002 115.09614 -11.846974 203.67487 -170.6621 120.57106 -45.977592 117.59917 -18.211401 264.90076 -124.70351 33.01463 148.5135 80.07429 73.67413 4.106987 -44.70768 98.01329 -306.36783 48.853455 73.88409399999998 186.71947 65.8216 -19.775917 -48.61409 -38.81292 82.93474 -22.521816 3.47006 -80.4272 69.968925 -97.50832 -84.23535 10.071896 -64.688675 22.331158 32.713116 299.2569299999999 -51.781662 51.352814 193.54758 -42.32414 49.02424 -85.27499399999998 8.919931 66.54288000000001 -85.26628000000002 -19.193739 -12.35675 16.118114000000002 202.13992 12.884997 2.201439 -166.26883999999995 60.96433 -2.934103 -4.1843309999999985 45.573334 1.8994659 362.81924 -177.56848 84.850365 -7.9796733999999985 -101.596985 34.880062 64.248985 43.386124 -91.237434 -3.383573 -93.480354 -89.66509 22.959475 51.165733 -66.37567 106.68468500000002 -216.21837 -35.144020000000005 34.031128 -116.83498 -31.503115 15.046451 -67.1042 -127.05724 -5.339986 3.8801568 17.314367 -14.453957 49.896904 -9.251529 -0.8052578 -12.070836 13.337057 16.830975 31.834713 -2.9861753 -57.73498000000001 -3.9519465 20.532484 -17.229704 23.384054000000006 18.263489 20.559069 23.588543 11.257247 -34.708233 3.0866961 -15.984034 23.277779 -3.2426043 31.089546 -3.284967 36.165337 -16.949679999999994 26.658161 2.039692 -34.952663 -19.52497 -17.808334 23.990644 -12.612372 -9.905972 -3.0290997 16.975634 -21.931412 17.274372 -16.786203 -34.52486 -4.433993 -40.91884 -2.8159158 -24.39956 22.368256 7.43641 -37.33319 -26.88399 2.2840133 17.729345000000006 -16.663649 14.033477 -15.09004 3.9624739 2.375225 -44.93176 -20.079906 43.82733 26.92192 15.216988 -1.4467096000000002 19.173292 3.3440351 11.198709 -37.399708 -21.41842 -59.015854 18.985626 -27.923052 3.7399423 4.761757 11.489537 12.737456 -57.747566000000006 4.4481597 -12.857073 9.389225 -24.963646 38.07597 -16.56907 -43.548557 9.210633 9.485037 14.579026999999998 -22.70532 -3.2085438 24.4603 15.024709 -44.498413 -45.598186 10.928506 -20.682255 -6.741358999999999 -0.2061382 15.674971 3.3908343 44.573284 -46.310535 -8.335734 20.267054 37.381687 -1.6284561000000002 -19.181286 13.578846 14.062357999999998 9.985144 -4.5662374 -22.75098 3.8509116 14.9352455 23.83943 2.7098274 -9.25503 -1.8229855 -29.016890000000004 21.494894 31.52959 36.09787 -18.3809 42.576668 40.782383 5.689844 -15.2134285 -5.4074870000000015 13.447888
( -66.16155 129.33733999999998 -477.51968 -43.40995 4.160950700000001 94.985916 -80.94406 -67.215385 -341.35696 36.61888 -66.09894 -37.981503 91.392746 -690.95215 182.69081 85.62347 -28.982265 -12.99816 -59.73787 119.75543 94.50873 9.477666 -10.752114 79.40212 90.19848 86.87078000000002 73.56724 157.45473 67.00256999999999 291.73676 106.93537 -52.295578000000006 21.260609 -160.94183 -16.395319 78.20652 -19.469948 51.148884 166.4994 -131.00783 -53.773 -332.04977 53.982983 83.82924 34.60068 262.0607 -106.34422 35.56112299999999 32.967648 -126.05953999999998 -16.71913 -97.01687 40.025627 98.77395 73.37701 -126.00673 13.60036 -93.27185 359.6389 7.6523824 34.38231 2.3200862 47.17939000000001 99.17998 75.62725999999998 87.444466 -107.582115 43.97113 33.153694 -14.381695 193.94821 -91.30479 137.95018000000002 -160.50395 -26.55688 -85.279686 47.66092 -29.527596000000006 -97.630455 -22.078869 27.795319 337.11322 -126.505875 113.06599 118.87707 -76.75887 -17.443144 -9.106126 57.34130500000001 17.761436 -61.223316 46.57531 1.5499321 67.02877 359.97888 -2.9192996 -53.257282 98.35619 5.4653845 50.228107 -94.65806 -85.22023 -83.05250500000002 37.5402 40.661037 50.70473 101.34993 90.77425 12.47255 -33.619246999999994 64.039345 -146.6868 80.37031999999998 175.95071000000004 -210.59491 59.83711 181.54237 184.62875 48.038578 -99.737785 -72.10311999999998 -11.887545 17.2211 -4.937784 130.6474 41.992004 -50.05879 -89.66074 2.318587 -52.71308000000001 -14.126323 28.494090000000003 13.783192 -5.501232 -40.826397 29.72563 18.652254 11.817694 28.29014 -94.02211 -17.163864 -24.133022 -8.946315 7.716462 -21.162773 -19.392616 12.795047 8.389797 -3.9935842 -24.473972 -20.025307 2.054626 -17.68845 -26.577913 16.55819 68.59826 10.358588 27.783340000000006 25.525625 -2.2376447 -6.218567 -44.446655 -9.640915 12.154269 -4.813461 3.125445 33.303432 -7.760082700000001 5.34235 -20.782288 19.313341 -35.621548 -29.728636 -25.895878 -32.406757 22.585741 -11.9307995 3.8710656 15.830981 -10.001627 16.83244 -54.79984 1.4327707 -19.662813 6.2746396 1.0308969 -92.48018 -0.61734974 32.067677 -3.8079522 35.908737 -13.714220999999998 16.299147 39.100403 6.5499473 -18.526392 3.7187114 -16.091303 19.07099 -23.79891 11.401809 31.030712 43.32309 -5.3108062999999985 -60.888344 34.51947 -39.614273 -20.491978 1.2017723 21.347765 -60.710182 -19.629059 -17.659907999999994 -14.918781 126.74634 -7.6142854999999985 -38.028206 7.819235000000001 -6.8953743 -5.3624 -15.704405 16.912172 -45.472786 -7.071586 2.3027043 1.8314216 18.646978 11.744734 -34.371303999999995 39.89588 18.23287 5.7274 10.01584 -0.15925407 13.196665 5.4991665 5.2283034000000015 23.236837 -2.7933435 37.744614 9.363332000000002 -20.27635 -31.021366 -0.5414211999999999 8.70578 -27.882498 23.015516 -2.3900146 4.7535934 0.6445426 22.762661 7.9260554 -36.9758 -26.339659 -25.3899 73.45873
) -100.31823 164.7015 -141.32365 -177.7746 481.9385400000001 0.62632775 -83.17419 -285.23428 -88.36074 60.596485 -51.737595 300.75613 -177.8069 -735.74866 21.880047 -79.24259 7.774831 -109.34453 117.895996 -93.372345 -87.83198 109.25912 15.09224 73.26921999999998 -148.9903 -174.64397 -37.405144 -240.25603 -144.36553999999995 186.3063 17.386381 86.525894 -12.004737 47.521736 77.269005 35.512 -115.420044 86.953835 21.592464 133.04045 75.3511 100.290535 115.22992 -81.229225 97.94599 197.766 -57.30687 -27.830288 -342.09488 277.6583 -16.586817 -65.61304 -208.42151 -308.406 -20.402843 278.65128 165.50449 26.536089 63.921516 25.069372 -105.90142 90.54888 -9.105274 188.1934 13.825148 42.11609 116.219986 34.521236 -186.25587 -23.990355 -186.45653 -89.87992 -93.33724 -84.33969 39.44611 -5.66794 127.93452 53.988167 -107.79001 -55.716003 16.518753 311.71024 182.88876 39.99896 31.625946000000006 104.844795 95.35057 60.657967000000006 -65.04351 -41.376625 -18.9422 56.78456 -75.63472 156.92242 355.81207 -246.41118 267.50632 -125.02197 17.51993 64.39466 -65.00483 -233.25612 63.455112 89.89398 -36.219078 -50.303818 44.654163 39.83828 -190.8561 38.46865 49.30049 -375.2164 91.53121 -50.740723 -379.1448 -74.1671 -135.84023 -45.570503 -86.349556 -60.513664 -90.255554 134.1166 31.063133 -10.481152 -44.83691 21.399855 11.211315 124.6757 -8.680849 -16.384167 -41.73977 -7.2311363 -10.827813 1.7567562 -21.44001 73.264984 16.485722 -17.349453 -3.7421086 -46.38533 51.52351 -9.122274 25.12773 23.184242 -2.8335297 16.93884 -5.4136024 -50.932026 -10.912168 10.163037 -18.13328 39.18496 17.887423000000005 -1.020376 8.870649 39.19626 17.948784 26.572107 33.456463 9.397646 19.071587 -44.35412 25.90828 -28.072166 9.005352 24.668877 11.81751 -34.96439 6.9019732000000005 19.429207 -30.448093 -44.541824 -70.20602 12.878546 -4.4719543 25.754082 -51.48517 37.53178 40.09949500000001 -23.999205 27.298624 -34.301098 20.20148 -10.239484 17.757332 12.271658 -26.446667 -7.187312 126.82563 -7.4579387000000015 31.752705 -5.265839 -13.089344 -19.404726 -28.785664 16.204007999999998 30.064484000000004 -65.086235 -32.880074 0.7282566999999999 50.78631 36.378246 22.242025 -27.613413 -87.15332 27.90745 -20.486519 27.022903000000003 -26.821365000000004 19.825878 -24.373192 41.644722 -23.3413 38.85701 -15.344492 19.766155 -5.196068 25.430182 -9.584573 -30.956957 -6.3306502999999985 -6.9731197 -47.285 -6.403553 57.97569300000001 -2.1509364 -9.280254 30.105871 -28.583048 -6.0376983 -0.5321524000000001 18.571539 15.0313015 2.4494653 9.77644 5.304437 38.671173 52.40536 26.995022 74.41287 46.89376 -4.958545 -41.65317 -21.7727 12.532571 -77.7565 -19.880112 16.739807 49.543545 0.6046473000000001 62.527252 34.070522 10.561011 -42.30604 -24.616837 7.9744477
* 86.7183 119.62427 -246.03238 -34.701446999999995 288.8536 43.692493 -76.69221999999998 -52.62984 -73.372826 -6.3868647 -113.26511399999998 263.93274 15.639855 -540.33344 -77.77264 -18.233404 -33.497673 -76.55525 55.15953 -66.62564 31.606632 73.133934 -18.016144 -65.53129 -14.675449 -88.637085 50.039757 -87.1809 -85.35769 47.955936 0.43831682 -73.11572 -15.478821 22.392353 79.52553 -37.5242 -41.526085 50.709274 246.0602 -41.463364 40.533993 246.20966 -24.413849 -2.7576745 -108.21395 467.12384 -7.330594500000001 -133.84163999999998 76.776726 197.85295 16.619743 171.75842 -63.04236 192.4667 30.662855 114.96394 -19.282774 -9.430747 229.06767 -107.90058 -5.346514 29.906542 5.1833339999999986 30.618603000000004 -14.632561 13.515674 59.036766 133.82504 -2.580651 1.7463452000000002 -2.7914243 -63.50241 14.776731 -2.6540072 -84.101395 -21.040972 44.38211 53.96221 69.30816999999999 0.73332316 43.39134 343.80038 -5.4881015 25.6175 -152.4626 7.929052 30.152725 -22.991194 214.50188 -21.757189 58.70236 -50.495945 -52.63253 -31.59756 20.177969 -0.24296993 68.36981 10.067983 -31.270144 151.93 -66.276146 -634.7846 -53.51676 -133.16183 116.27778 -12.086127 -44.359467 64.1653 -63.24866 -71.45961 0.41196108 -483.57895 106.745926 148.10124 -37.125214 20.792244 -193.17137 -97.00092 45.065506 62.14518 -16.49631 -37.386295 -60.651375 19.876366 37.82904 -27.240406 -8.621522 106.411194 -30.388384 -99.51515 -27.629072 -49.123074 43.63107700000001 -13.475429 -55.480072 31.36015 65.091095 9.99408 18.907412 -97.78615 12.153233 -78.21752 43.237156 7.748180400000002 -7.6383553 -10.192564 42.028774 -22.064919 -0.42371094 -57.808723 -13.09124 8.413206 1.323032 6.010856 36.509365 77.55185999999998 4.0670533 39.486847 -3.0957913 -4.5141177 10.112595 -65.504326 -10.226171 1.2847984 30.151775 5.536867 8.83727 -18.21181 4.589290599999999 -57.163956000000006 -5.413131 -14.053227 -68.31235500000001 -25.001976000000006 -22.400133 21.919893 -29.088575 54.754635 42.714794 -39.75053 8.426105999999999 2.4574208 18.363468 -44.95889 2.636435 6.2157373 -93.46465 12.775487 132.75426000000002 -33.975414 13.256041 -0.020967841 -5.4837217 23.855978 9.790912 -15.8130455 -11.325926 -11.408747 6.522456 -29.176376 13.726744 39.016342 36.5085 -36.55966 -30.977966 27.515724 -37.307785 2.1674843 -38.55783 41.310177 -36.298874 18.438068 -35.11955 33.367702 86.133575 -11.699883 -28.878689 22.512428 42.545418 -26.454685 -4.914154 -20.950733 -44.21617 -8.537063999999999 24.362701 -3.5202785000000003 -8.454133 5.6636004 -35.37313 49.279408 14.7461405 41.789455 -14.143721 12.540909 15.146865 -6.940648 -23.35023 18.876596 18.219244 57.29443000000001 -10.028304 -5.8204236 -48.07129000000001 3.7777276 51.37156 -60.14052 2.416502 -7.1455245 -11.399224 -22.13999 56.34556600000001 31.989223 -0.7872176 1.6902411 -37.112892 61.798107
+ -62.264324 298.93912 -111.484215 -18.611477 470.20148 106.24602 -225.44318 -466.76395 225.11316 9.904923 -268.274 262.93167 22.228008 -545.2302 -119.16489 -16.442835000000002 143.82481 -111.8247 -17.820066 -124.18646 -4.8993874 142.2854 40.808987 112.48703 93.36378 39.01071 -64.69373 -408.64172 -9.853953 -359.339 -184.66652 -101.156136 71.48028000000002 8.158268 -81.026184 31.02922 4.8405724 197.54372 123.94291 58.969547 60.676685 480.70108 -137.51636000000002 95.907425 130.94312 399.36893 -77.09192 -91.92875 -335.63632 -123.48176 -61.483788 -135.62825 -138.05289 233.35829 75.79568 124.97265 31.724737 -42.755505 -78.50361 20.235163 42.01588 -76.43189 21.886316 -22.455833 38.141434 109.71444 112.59171 41.81097000000001 -10.756532 -23.953169 81.35207 -100.76088 8.14149 -137.79965 -147.74217 -152.74777 108.693 -14.432846 42.260933 -86.88494 -97.470085 309.08463 239.09552 8.176706 -131.13016000000002 93.98994 -32.063602 100.80781 425.6898 -75.9996 -29.004988 132.52151 83.46109 -36.69315 64.09673000000001 -63.99672 181.59297 -31.552303 1.6818608 282.99734 -225.47816 -794.85974 13.256822 -120.17837 64.92475 20.580294 -18.281677 204.96884 -215.95491 96.15304 88.976555 -592.05994 131.69945 97.26953 -149.63678000000004 15.722414 -649.4875 -209.53621 42.29233 -184.33994 -81.25518000000002 260.25253 73.535126 -19.040026 -7.173046 63.360847 38.219982 262.75198 1.0250357 -19.656702 -16.859201000000002 -60.37299 -47.269913 -3.1946855 -68.70267 -28.029333 49.924736 33.212067 11.292378 -74.9098 92.289444 -14.9454 31.756474 -2.9416072 -32.441715 -35.818943 16.805048 -43.45 -12.9571085 -36.089863 -33.445686 16.263601 -16.259716 9.76135 9.223474 53.697166 1.3174523 6.553574 17.126669 10.424675 39.116364 -74.21077 13.43509 -30.17349 -16.751097 39.040024 16.344986 17.444653 5.7038236 -56.906654 -32.03817 -54.02003000000001 -72.1932 -3.5519915 -6.4935474000000015 34.362829999999995 -2.898512 51.162636 62.72185 44.665985 24.495636 -4.9205194 35.39478300000001 -66.34654 -10.737243 -13.882859 -80.53052 8.8139 152.64926 -24.392239 29.875477000000004 -44.671696 -18.900146 51.502304 -0.09947848 -14.746052 57.48161700000001 4.596629599999999 0.7565904999999999 -17.07248 60.799 92.45679 70.5888 -66.60033 -87.91145999999998 47.687798 -72.64323 35.55918 -9.971684 -9.540922 1.318568 21.388237 -37.271748 18.545126 169.26561 28.500093 -0.1628778 40.207478 -9.613197 -43.451843 -0.2341404 -65.38193000000001 -69.12263 13.553825 19.165241 -54.564228 0.34336227 7.1058974 -28.385221 41.41932 0.28587234 -21.212856 -22.252281 26.163984 9.12277 52.590153 6.7102222000000005 42.64742 54.80846999999999 76.68685 48.37388 -34.33592 -53.61198 -23.267881 22.13855 -79.2192 -22.34916 -10.792755 9.769482 2.5881133 68.28828 15.512584 -16.368242000000002 -30.19479 -53.777283 75.38542
, -62.41140400000001 -251.74391 -248.29175 -125.17298 164.67816000000005 -10.508925 -205.66324 247.13306 -41.138123 -84.38991 -249.95383 139.29877 -143.41418000000004 -287.56995 231.48494 41.03816 -30.79617 -99.2332 -110.40789 39.371754 -4.649505 8.5638895 -67.66006999999999 122.73967 41.04444 -92.128235 59.960106 -42.712112 -11.771857 -229.65642000000003 249.46857000000003 104.120125 -77.02984000000002 -18.995079 -110.80345 31.4244 -22.758375 27.94376 59.949566 -66.868904 -27.794708 -54.681652 117.67789 86.99176999999997 240.2384 45.127766 -4.2393622 -34.75755 76.2598 43.721283 -49.43727 -36.740883 -69.19773 -17.822104 87.95973000000002 -94.86881 42.792095 -8.573869 184.66873 36.843845 -29.589666 -68.13132 -0.92976415 23.312984 74.42884000000002 82.409355 -6.1771026 60.40078000000001 -48.931873 -96.87176 19.552938 5.913464 97.63285 -130.84265 57.8285 -121.22963 10.512411 -23.624598 49.93605 -95.52076 -33.313248 32.398907 310.97598 34.316284 -127.12563 -41.68096 -18.015368 -50.424362 19.694284 69.54204 -50.285423 125.790054 265.4663 138.20547 190.48944 -72.6808 19.540527 -74.89304 -8.479203 76.615814 21.36312 -285.13214 4.362371 -100.92921 105.0728 -27.958237 25.39805 41.426018 -24.848122 25.739508 -56.08036800000001 -17.969194 177.72206 -66.89200600000001 -192.76952 69.0998 -114.29441 3.4335089999999995 46.395435 -74.78118 57.185688 -1.7923371 -23.440945000000006 -31.059532 70.19248 -121.14713 -41.03533 -247.92598 2.306447 -0.89610326 -36.857475 22.304419 21.014536 22.638866 -22.369009 0.25114202 35.83313 -8.004478 -32.757458 -24.412222 -3.7608583 9.093708 14.766359 -6.931374000000001 -19.51254 -18.43166 -28.441711 10.719853 -3.2563481 4.3479524000000005 20.44688 12.029827 -2.4346118 6.1895084 17.852476 12.036211 19.406864 14.718805 9.03766 -14.472074 14.616473999999998 -36.389965 3.6317112 -13.409756 -7.193038499999999 17.966969 -7.236264 0.97868335 29.147264 8.195955 35.020912 -9.372358 -24.661491 -25.398455 12.73457 8.576592999999999 4.5848580000000005 -7.9092259999999985 -1.3532705 18.651834 23.308628 -24.028984 3.615049 -17.030914000000006 -20.171576 -26.05683 -38.421616 30.240707 13.869097 5.5114417 17.478693 -27.663223 3.2671497000000005 18.363483 5.6991653 18.248047 -22.666544 1.417469 11.900855 4.166285500000001 -13.803119 25.240768 27.369665 24.858768 -47.49625800000001 4.385006 -7.9185686 -5.3871737 4.4206157 -4.8922563 -40.2659 20.73521 -0.3155114 10.359383 -24.017126 -27.735342 -11.277706 -14.510376999999998 -20.864311 10.035961 -3.0020130000000003 -5.7231817000000005 -17.556042 -4.5417266 33.241935999999995 6.9296440000000015 18.011126 -7.7949114 21.428568 -5.710719 -3.6764996 39.950874 -0.88021976 15.344684 10.484575 -14.331079 20.42664 33.397663 -2.4030993 -18.253094 -25.817545000000006 -26.537916 9.591419 -1.7944038 17.129158 -17.506592 18.199524 25.295666 27.010344 -9.735703 22.982754 -12.261649 -0.14682233 -10.612331 -16.17772 2.0934129
- -24.082438 177.57943999999995 -65.46846 15.834482 -59.29619200000001 -40.13729 -258.50543 -302.36295 -71.732895 -25.936253 -18.899504 148.74808000000004 34.63608 -102.79044 75.02526999999998 -33.22985 88.472305 20.461058 79.03394 -59.49698000000001 29.03245 -47.52242 -15.602312 71.09749000000002 -72.01805999999998 53.291958 -35.7722 -152.5855 22.687012 -69.26087 -224.97801 67.85481999999999 -86.96545400000002 13.808062 -39.157337 -22.467089 -32.485283 111.12521 235.52148 49.990463 48.076515 126.724976 -132.33231999999998 -81.23944 70.67789499999998 59.57542 -64.898834 -118.65984 -367.4799 -206.52693 82.46235 165.1953 -40.95163 88.23749000000002 14.414492999999998 -150.27544 -0.7672666 -16.613155 -88.32642 56.779194 165.72356000000005 69.99519000000001 91.46295 -26.124828 23.008884 64.40218 84.27541 168.84479 -52.008774 12.486364 108.383156 -38.099834 -7.2121806 -47.03287 -228.25084 24.10906 28.916529 -80.173355 57.484924 -84.30196 -22.744812 -38.99969 -38.648033 75.41284 -62.530785 -11.453346 -144.10873 -62.671078 237.0286 -7.558253999999999 44.749798 51.80263 -26.15873 22.847555 7.136138000000001 54.086224 23.798065 50.93772 -55.404087 101.62156 -61.341713 -280.49527 63.672104 -37.207283 4.7813067 63.492027 -46.877983 46.195637 -153.091 -98.106636 18.63628 -381.1603 110.05967 46.101414 -97.95643 -15.724601000000002 -375.13293 -47.76346 -59.617527 -16.253769000000002 -4.221372 -40.82443 -234.15115 39.987335 -50.65767 -9.645549 18.282503 12.300356 27.848576 -27.386078 -22.998735 -25.474012 2.1957877 -3.8248057 -38.355457 -9.145176 41.481598 13.518606 37.345406 -69.85339 41.267784000000006 -41.209995 19.023125 -13.905975 15.689928 -28.12414 -10.248984 0.15839088 -11.305941 -22.673922 -1.4233005 34.207176000000004 -4.3124523 30.450468 21.682764 21.028135 15.349712 48.15125 15.28191 -4.5477843 21.233822 -25.240383 -3.1191142000000003 6.4735975 24.315956 62.94919599999999 22.079395 1.3836881 11.283121 -66.63611 -35.755684 3.0029354 -59.569935 7.0818586 8.44768 27.114662 -9.078333 25.047167 4.4018726 -32.73121 33.00315 -15.328532999999998 4.406400700000002 -58.98634000000001 28.691267 -1.4787343000000002 -38.603573 3.7715392 21.837465 8.878785 13.783907999999998 -22.463741 3.4227529000000003 46.15068 1.4727149 -31.19269 15.1980095 -19.468796 16.61867 -38.51716 30.693533 68.36326 20.880016 -0.30882424 -14.853183 36.245174 -20.983635 12.291823 25.026485 8.260530000000001 -24.200611 10.739248 -17.088093 14.405149 112.34853 -25.830992 -16.372833 37.97208 19.968447 -17.332435999999998 -16.953806 -28.661882 -60.393745 8.782845 18.723328 -32.70656 -11.421299 10.217608 -2.9280424 34.709034 9.745887 33.61381 -25.145144 -3.2348058 33.12879 -3.0205407 6.1223097 27.504087 16.950142 15.154242000000002 4.3490233 -5.788834 -2.9670863 -25.002102 36.505257 -44.181892 19.748852 -26.550669 9.63666 5.271968 26.227518 5.374084 -12.897548 -23.62776 -19.646795 61.135868
. 109.81646 -488.4749 -167.2936 -127.15753 92.4844 -102.618965 -101.086945 60.64369 -165.19742 -5.627783999999999 -128.83058 124.68383 48.663425 -97.37495 129.77365 6.252769 33.56126 -9.166631 -114.94881 38.688923 -63.361465 111.417046 -44.263172 167.45443999999995 26.35793 -139.72256000000002 146.45653 13.419249 24.34779 133.93892 200.82626 76.03751 -99.085144 -95.310486 -102.606384 -21.052608 10.585759 132.28188 166.18573 -14.529470000000002 12.164789 168.91398999999996 113.170105 93.0668 162.71046 59.606476 72.27616 -78.75254 31.428265000000003 18.555672 -68.60424 -97.433586 2.722313 43.636505 29.438955 -19.19028 -8.663312 -42.94426 195.03404 113.31566 -96.62404 -74.86938 127.97592 0.07764819 2.9482949 136.46909 -4.54322 81.48009 -37.72874 -63.41285 33.025448 -9.188007 -46.687912 7.052006 181.95369 -128.80626999999998 7.464558999999999 44.9517 52.9777 -93.20789 13.100097 -57.630436 273.9292 -69.46321999999999 17.376717000000006 -108.06019 6.090803599999999 -0.70715296 -61.923786 -31.303022 27.840738 153.35448 190.41415 191.67365 136.54152 -133.66656 72.651146 -33.53855 16.683477 105.21478 -34.32427 -100.06424 -54.36587 -126.54538 159.63353999999995 -43.66689 -48.300785 90.2961 -60.72583 103.33027 -40.01728 28.786276 95.35631 -149.79838999999996 -194.6388 28.013664 77.88299599999998 32.328964 12.600928 -90.02767 -24.728489 55.15769 -89.15343 -26.235857 49.845455 -57.004406 -21.145752 -55.55853000000001 -22.025816 -30.516762 -36.74711 -12.374959 39.919086 36.991283 -0.28424135 4.096392 14.326496 2.8209607999999995 -6.5101914 -23.276787 -5.5313864 -0.8062752 20.779667 -11.708481 21.042875 -21.648525 -35.24051 5.7029276 -28.839458 2.3557467 8.810828 34.464363 1.0177883 -14.51142 33.19877 7.804823 40.457638 40.091118 12.142029 -14.87261 29.907326 -14.558262 26.562763 11.778766 12.85679 21.307344 20.897371 -16.477755 11.807266 -2.08498 8.894845 -20.895863 -40.660114 20.633924 -44.751434 -1.1943829 -7.7719245 -20.33549 2.7033653 -1.9755263 22.61391 -53.24825300000001 5.8330536 -20.565208 -6.7307734 -35.23345 -40.965336 43.945667 11.984195 -4.90219 53.6921 -38.78259 -8.386713 12.142033 39.953625 10.234444 -21.71039 12.830778 5.3307614 5.283162 6.776575599999998 24.74103 36.04277 16.849857 -34.79607 28.299175 -0.24948418 5.8915777 3.6570506 7.773664 -2.7829754 26.546997 -7.178757000000001 27.52357 -0.6567553 -28.529804 -34.791286 -16.927220000000002 -12.594231 9.625322 -27.352945 -12.225951 -37.248825 -3.4184809 21.68771 3.1800041 20.807116 -3.9752588 -3.4316037000000006 21.16972 17.215488 37.55361 -15.703617 23.554533 26.535278 -7.7393365 22.977562 33.499096 8.852374000000003 9.813624 -47.553047 -11.862947 7.2573732999999985 -34.87855 53.69425 -17.967427999999995 20.76118 4.1609597 20.42252 -44.028522 35.087837 -17.298851000000006 22.555796 -18.781893 2.022332 -6.1886663
/ -14.871492000000002 140.78856000000005 -89.755455 52.26957700000001 -153.54855 -28.337313 -86.0067 -292.27695 -81.17605 40.392986 -62.988575 153.33424 91.68034 -255.48871 -173.17606 63.32982 -38.22126 -70.54411 254.44446 -38.597187 82.37526 -137.98308 -93.64932 -8.998667 75.806366 195.91797 39.65329000000001 -44.439682 -58.49529 130.64043 -206.387 4.0889989999999985 83.7632 -93.33314 16.544098 17.326296 -31.285372 -65.15514 -82.88133 -145.30886999999996 40.75826 -88.67736 -94.56623 60.237377 44.92914 294.65863 100.49596 154.97017 69.78209 97.369965 -37.975525 101.285416 67.89738 -163.06024 -43.707783 -23.874674 -19.161263 -154.08308 223.95001 -111.73438 -57.944252 -44.462223 -166.93303999999995 137.07152 -74.39986999999998 4.529815 -27.31115 230.09508 -133.70816000000002 117.465256 -118.406715 -69.478065 -18.257677 -110.88335 -18.375738 133.80893999999998 81.62399 -40.094112 -44.031246 15.8620405 -7.455363 74.04908 160.8679 -53.17225 36.391098 67.44533 39.950314 34.812529999999995 -154.08598 -22.338726 -5.5502253 48.066128000000006 -187.62346 -34.97197 10.046894 50.314373 -24.671246 21.41904 -35.0063 -90.96609 -151.72197 -193.36102 89.265305 74.220215 -169.99421999999996 14.0282 85.97055 -21.595991 -60.60885 -38.4354 24.722977 -249.11435 15.212943 39.753525 -86.51946 -27.625149 -167.99527 10.65179 -129.3035 76.36703 18.077185 -101.49807 -55.832607 -134.56667 36.399963 58.52819 45.172043 45.63933 -5.832929599999999 -64.3452 4.074996499999999 1.4433947 17.062992 -3.6469607 -12.2782545 -23.898746 7.7656894 28.51065 25.212372 -55.05429 3.1009924 -7.874527499999999 -8.696537 -1.9189103 20.789 14.305582 34.529324 -0.67508584 23.302187 7.981772 -4.384714 -5.060439 15.057568 60.097263 54.95397 22.878353 3.6888149 6.094551999999998 29.416445 -34.275436 -3.192662 -2.9469664 -9.1438 -2.430048 5.2815949999999985 40.73141500000001 13.020393 -15.559259 -9.74319 -34.207190000000004 -15.821071 7.840762599999999 -23.584763 -20.745089 -19.024685 34.572655 7.6291227 59.25086 15.108851 -19.884655 0.3715396 -45.255573 2.478703 -34.078959999999995 16.081516 7.677173599999999 -49.652016 31.01066 36.781086 -5.868733 14.949929 -15.188113 14.797409 55.84185400000001 7.2182584 -30.761082 12.362309 7.101042999999999 -4.6778545 5.8299484 19.410942 20.51097 18.932144 -3.9175794 -18.217382 9.739034 -22.471357 -3.1709783 7.6044535999999985 -16.23351 -49.90491 7.5358243 -6.781812 2.8839064 103.07728 -12.287333 -41.08295 -1.8201727 15.647707 -6.7804202999999985 13.866242000000002 -6.358676999999999 -49.00685 6.6524177 22.123226000000006 11.230224 13.276715 12.322188 -37.423645 -0.13593593 12.886183 5.2561160000000005 -11.439501 18.371572 -7.537311 -6.607403 -15.906659 8.098975 -12.326577 21.505255 -6.2549660000000005 17.356916000000002 -4.5577492999999984 -12.834787 31.32453 -41.758804 18.242144 6.089161 14.078893 -31.183367 -1.3631983 -11.485064 -24.700525 -32.785088 -5.395706 34.16265
0 73.50503499999998 -43.681873 12.015964 280.79297 152.12984 48.09883 -91.86302 -96.471436 -421.82605 119.99941 -154.35028 2.5198596 172.32353 -85.29233599999998 14.649776 -36.00044600000001 200.08336 58.823715 106.49717 52.51848199999999 -147.68848 124.79183 121.3885 -24.330858 16.821217 -73.73463000000002 -11.094513 28.073837 -7.654058 -134.45056 148.4965 -78.17486 -42.66092 70.71191400000002 267.02737 -28.430378 -33.86828 126.31266 219.09814 7.733192 74.91631 2.1655538 -53.24120300000001 58.431046 87.92748 458.46335 127.01949 -158.90337 32.253277000000004 153.84067 -9.517176 85.74401999999998 130.81264 257.86642 -205.38983 -98.16073 -18.01245 53.34519 466.3898 -10.750496 32.3338 -95.98178 202.29395 77.70091 15.238264 -146.2196 95.46654 72.71213 -0.35620195 -26.886662 -46.40653 -194.9211 71.34348 -71.11191 177.56812 55.46253000000001 34.33498400000001 130.0987 -41.24929 -0.028999489 85.42668 -304.11835 -168.03188 -34.065247 303.5093 -23.679693 -20.576887 -176.7711 -13.274004 -0.20447424 58.77154 -7.737422500000001 -13.383070000000002 -85.67027 -65.42515999999999 -133.40991 -141.28885 64.23795 17.522297000000002 -91.41893 -64.76126 -260.14157 -93.0022 67.82369 414.20493 7.4055276 -173.78671 -111.85674 18.068039 11.018115 7.282017 -258.09842000000003 1.3885324 -18.190668 182.92366 88.20636999999998 -280.87906 -7.3454237 -28.970312 48.753975 34.524033 72.16056999999998 -142.6224 43.54686 43.62849 90.159515 -10.30245 19.807056 -9.508368 -85.625244 -55.615646 -14.510846 62.5545 -11.051128 -109.380066 30.571756 60.960625 6.1428475 24.812422 -79.730385 9.255673 -98.554794 -8.377993 -3.0875382 44.787437 -4.5885553 61.931225 -1.2432199 25.93286 -50.50528 -1.3012694 18.259819 -14.333093 29.263437 40.860252 88.98109000000002 -11.599145 62.15924 42.054264 -10.738717 12.527505 -9.9545965 32.812008 -14.051542 -17.754866 39.25845 64.492386 -19.733088 -5.5918093 -95.39346 34.680313 5.702804 -58.635124 -17.52289 12.021403 7.625468 -22.869453 62.261353 20.248243 -31.97931 10.885614 -47.969032 10.600393 -118.23615 -0.28014237 31.61436 -105.53536 28.050795 77.00544000000002 16.161587 57.521637 -19.999634 15.77014 44.156757 12.332044 -25.473984 4.583078 -11.342656 24.387897 -34.114273 47.718533 3.883281 23.83029 -41.55825 -36.33947 25.235447 -0.058966756 -28.242706 7.731066 81.075356 -74.0273 34.76435 -45.501564 12.5515 163.57506999999995 -5.6475019999999985 -47.1421 5.458177 -8.983566 -41.216797 -24.744692 -26.294031 -97.200645 -39.392986 64.631905 -14.044502 -15.101966 12.114995 -27.279274 53.9719 18.887009 54.884674 -38.85418 -10.44319 42.872128 -8.115793 8.028893 46.103474 9.93835 -14.869566 11.985335 6.0661554 -17.02032 -37.698093 41.821564 -72.09021 23.212038 -8.518485 48.919594 -3.3651896 66.191124 14.937014 -12.457897 -25.273329 -20.769562 82.894875
1 -147.93028 -329.61874 -365.70718 30.717083 204.6472 -5.256268 -181.5292 -78.30592 -542.82776 96.45364 -88.35814 -70.20265 -93.75421 -184.74147 139.29915 35.476124 -76.35823 -138.41638 50.661827 173.37528999999995 -10.151221 193.31676 174.50928000000005 17.245241 -54.968258 144.27408 18.038809 -211.27892000000003 20.712551 214.65683 135.27087 -110.49475 -9.829494 80.82278000000002 119.56236 81.720924 34.474472 -68.71209 394.30936 176.23338 -27.249035 51.332798 157.80006 98.23976 245.89088 372.67252 28.367712 66.41986999999999 116.654076 99.91596 -76.62018 -148.6298 -14.580746 74.421974 -60.342896 -173.97775 18.762064 -50.88398400000001 531.5796 -20.153633 3.701799 -128.7387 43.863655 44.746655 -93.17564 143.36354 88.55502 27.949085 -69.67955 -37.482063 -51.9016 -48.96379500000001 112.84933 -60.538776 108.42428999999998 -90.80848 92.58694 90.02632 -180.87517 -0.86854833 -59.76850500000001 48.281944 114.91138 36.36285 -19.225376 39.14759 51.09313 -131.33315 -173.92231999999996 -69.34131 -27.912008 -34.254044 -171.87683 86.79293 160.23349 -86.38405999999998 138.61955 52.073647 -56.83263 -92.47207 19.340845 -158.27454 -127.13586399999998 -407.72354 171.55376 -53.51314 11.730118 -70.71667 -87.65168 0.3967616 25.715286 -155.696 1.1765623 209.71838 -84.02008000000002 59.29581500000001 -97.88128 -13.732024 50.408794 3.4622126000000004 -67.20528 24.488604 -101.46461 242.33583 10.672293 -62.143387 -9.249808 101.740036 -17.527601 -65.23074 -62.27064 0.26555616 31.688736 1.9717423 -74.41076 14.240828 42.70568 -8.165041 14.436420000000002 -77.41329 -8.962603 -62.032322 9.845184 -24.446373 30.253803 -4.216460700000002 34.221977 -24.11486 -18.022697 -7.6712440000000015 -0.39784944 6.179191 1.5007576 31.437878 52.85106 46.392612 16.523663 42.312187 65.82081 -8.673879 40.267952 -30.992113 -3.7843454 -17.498154 -3.1858475 66.6308 22.516945 2.7843285 17.599009 -37.66013 16.36265 -37.347935 -42.030094 -27.258976 -12.191131 22.042664 -10.079146 43.41398 34.740295 -6.909565400000001 18.352808 -61.49846 -2.7654984 -78.90172 -7.4100595 -6.313058 -102.02079 45.200527 84.66067 3.8342676 53.116177 -10.047063 -2.398709 32.130276 11.777549 -11.086168 9.361763 -0.03567928 16.200104 -2.5557535 9.582135 6.4144554000000005 33.6843 2.4832056 -55.13727 21.219618 -5.975816 -25.550407 -10.754684 13.114296 -80.483604 25.306265 -0.90700597 16.629213 23.299826 -18.305323 -26.4267 -14.329096 -18.867863 11.48619 14.790222 -54.49686 -62.454980000000006 -17.49449 9.681485 21.183098 37.501774 6.334989 -14.278745 16.365969 29.050728000000003 43.50257 -23.581745 15.304811 34.608115999999995 -32.270206 13.377645 45.50815 11.321275 48.9205 -30.952415 4.3704195 -35.451614 -31.628384000000004 60.58799000000001 -50.458797 23.165043 28.175499 67.98714 17.473751 56.46131999999999 22.735767000000006 13.250032 -22.48521 -40.962147 45.683674
2 -215.20113 -206.06941 -61.384014 320.3153 -10.008641 -99.51745 39.087532 -78.53409 -700.87195 153.34978 -315.20685 79.23954 81.918396 -151.73584 83.94035 52.551563 -116.40845 -157.29506999999995 249.37141 356.61536 67.402275 18.66685 -14.700665 -110.21793999999998 -55.876534 -17.213062 -34.099987 5.2317157 -101.92961 200.03133 -89.86865999999998 3.7687612 89.336235 102.90658 85.02094 35.66419000000001 20.585922 -59.63108 82.02916 97.694626 187.71254 104.38009 31.730541 105.57917 527.2914 535.5416 47.316353 18.671896 194.4151 -9.0329275 -10.749262 140.92044 -34.467762 -116.10215 -95.03397 -89.82122 -102.87738 -83.54458000000002 731.1961 -88.94751 -233.16762000000003 -204.3494 227.81242000000003 -54.45125600000001 -237.03459 -3.2154117 39.22854 280.28555 -119.6878 16.775743 -31.756248 -114.46255 -73.892685 -290.70013 379.84238 36.551212 120.18125 -50.95851 -98.24922 -37.918503 -4.3628197 -280.50027 290.19696 32.88692 212.02304 76.79079 179.97395 -133.33183 -334.56924 49.40461 -25.493658 -89.6091 -34.37279 144.35913 67.92206 -112.2878 44.89636 75.96274 -63.392147 -201.30402 -166.96568 -15.079617 -166.12012 94.71946 115.46146 -69.42908 124.90353 -172.99396000000004 -221.52643 -72.792725 -78.34264 -93.912384 -118.67417 115.283394 -135.75247 109.5941 -379.1062 87.31750500000003 17.528917 79.2797 -113.70728 -69.679886 -255.80243 48.794323 -124.19484 6.924056 75.15398 -24.009888 -35.845863 -103.4305 -34.69205 -24.39019 51.441803 7.5379686 -85.78472 -40.09082 38.214157 22.528515 19.82133 -49.484287 -11.160772 -41.741856 5.184564599999999 -27.953651 80.64915 11.523829 88.60006 -13.521036 -3.1618156 -56.02206999999999 29.118587 15.521475 -4.1160903 58.139442 78.05529 12.337965 2.2966192000000003 40.54122 98.66515 -31.179384 -4.7780037 -5.4871883000000015 -2.2973506 -18.459566 -21.049816 69.82692 26.227072 -17.420527 16.060986 -80.36856 -0.9150344 -2.5828385 -14.628453 -35.925407 -7.746162400000001 3.200927 16.11894 74.2314 62.288074 -19.465204 31.49385 -78.160675 16.744335 -84.09851 -18.967455 23.308770000000006 -94.87711 114.77094 88.01836999999998 8.274854 68.30202 -28.957897 15.413001 62.42096700000001 15.472163 0.59047574 8.361182000000001 12.471121 24.541231 5.3283043 40.621056 9.529557 22.031855 -31.717726000000006 -34.0208 26.860935 -23.92591 1.9243331 12.060026 55.43928 -67.28666 37.72911 1.5529301000000002 -0.9333606 119.75093 -35.142754 -62.93781 -18.960455 19.57018 22.293634 22.071377 -21.423355 -37.875988 -27.975628000000004 62.757034 27.414927 5.2490516 37.60825 -14.721862 -18.555397 22.566732 34.18793 -45.505646 33.134968 43.577282 -28.291212 -24.939547 49.066864 -6.5138526 25.006073 -54.015354 -5.947202 -10.895712 -65.506714 52.92931700000001 -56.198715 25.745735 49.92085 40.99651 -6.569403 83.70258000000003 -33.489684999999994 13.942943 -34.02435 -51.44257 68.66126
3 -37.047176 -148.66223 -33.6132 393.59628 126.87357 -100.65568 203.37526 86.06165 -655.5175 169.30900000000003 -359.8164 149.5818 310.6344 -207.82037 91.01935 32.657920000000004 25.04498 -55.22541 129.41982 366.13965 -17.175337 87.28954 27.073366 -215.27364 -51.368896 -93.59689 -34.872597 166.19621 -188.45352 134.57707 99.40958 16.173714 64.140915 99.49032 168.93181 116.85934 -2.4906921000000004 -20.762318 100.69551 3.7574096 207.6488 87.06635 -30.540940000000006 200.02087 427.8199 406.40253 126.238045 -227.08142 197.38432 46.43212 67.10528599999999 101.60065 89.32003 -75.13221 -137.75217 -64.09683000000001 -120.93948 -88.196724 619.12396 -33.666008000000005 -145.0914 -306.7120700000001 149.76161000000005 57.856182 -128.25986 -105.101135 -21.88404 282.2004 -54.767006 22.06472 -71.58036 -162.40562 48.980274 -213.67867 501.64346 94.25371 81.734024 13.758326 -114.41923 11.425526 92.56604 -232.95062 245.38957 138.85493 323.02225 43.013676 157.5395 -135.54663 -220.86287 -2.457854 -16.113104 -175.48183 23.868803 157.89821 -27.009115 -128.57256999999998 -118.20559 73.91799 97.69462 -155.86642 -187.4072 -34.251083 -170.13644 193.39577 328.87854 -41.368427 29.507566 -111.187706 -165.79411000000005 4.990893 -3.9771457 -185.4989 -81.40459399999997 185.67944 -109.171646 64.82393 -159.95506 65.057785 30.769606 87.78772 -56.999596 26.702154 -236.24861 -40.27442 -152.89519 198.23859 68.94946 -112.65652 -18.161928 -80.605446 -42.915066 -28.955402000000007 75.81279 -24.698414 -103.95457 2.3024162999999995 46.920013 9.675239 -6.648490400000001 -61.767174 -7.702376400000001 -70.8648 25.242592 -22.932812 74.26245 17.595093 28.961418 -17.089682 -10.023636 -30.591463 12.607489 4.619854 5.556339 17.644665 97.27413 30.598652 -24.226078 42.159996 79.184044 -21.656477 7.0964622 -15.445714 -21.394934 -24.739456 -31.297203000000003 53.492336 29.010641 -4.3806343 -11.295304 -72.57924 40.47761 -28.515661 -27.323736 -13.913949 14.905246 -4.044477 16.939992999999998 67.202126 22.289782 -23.95953 31.912472 -55.891052 15.033416 -88.600464 -24.833029 9.334482 -118.75283 101.4001 79.76709 9.4026575 36.644783 -22.040722 26.153177 65.1509 26.833443 -21.931192000000006 22.241364 10.423827 53.24531 4.137438 58.07095 6.016229599999999 5.1801414 -32.856663 -55.44116999999999 46.188217 -37.709164 -19.790401 31.345507 21.84101 -52.168533 44.51532 -0.016136825 15.932448999999998 147.60875 -36.649105 -45.58397 -23.707592 8.111195 22.389189 42.86187 -13.961362 -57.365685 -0.024540424 49.585175 22.076748 -25.150484 21.657701 -30.31652 30.852217 0.18700147 37.882927 -64.476425 29.532873 41.490982 -21.134602 1.7016664 69.029945 -13.141601 -3.7810354 -40.712116 6.1346326 -2.8045793 -63.11054 30.63137 -66.59049 43.706833 13.62067 62.062824 -0.49752367 79.59792 -15.050614 21.28561 -43.932808 -49.326084 53.166615
4 -65.046776 251.17482 100.14049 344.95795 241.58122000000003 147.56788999999995 -146.64072 52.63267 9.981254 57.73641600000001 -142.16261 -144.32645 -4.5805736 -286.28183 -22.689041 -11.536332000000002 -4.4494514 -152.74615 -217.92284 25.100658 21.887358 25.089546 104.87963 34.95263 50.8867 -71.87456999999998 -93.556786 188.71198 26.52481 -345.62067 -132.0115 -131.57242 -55.250652 20.264446 20.346718 -51.0779 81.21452 -62.568398 186.98468 -67.06748 -49.12308 -50.53153 2.4909263 -91.78696 6.5620127 452.88907 -90.74996 88.226776 262.3934 -71.18271999999997 -2.4768355 14.666332 -156.46353 108.32336 117.52289 -27.36914 -23.429003 -18.47166 59.116283 -58.465363 -29.249983 -53.887142 7.2678600000000015 -19.101978 -94.720184 -10.411218 138.61206 -179.94156999999996 -10.587436 -1.6567105 118.99703999999998 -83.35539 11.984548 -160.78586 -202.00438 -123.83164 84.97740999999998 -36.075798 17.79959 36.567997 2.5697782000000005 47.41232700000001 -195.53186 -25.265438 -330.05444 -4.2953215 -133.2749 116.183 349.0912 -11.157694 36.529095 -32.01896 109.28464 -77.10821999999997 -562.4132 -75.62206 71.17765 -74.358986 -124.330246 79.72437 -195.62025 -393.47437 -46.407154 364.03302 -6.7659073 -0.20282884 50.172287 62.24841 -123.84061 3.1164522 62.799816 -76.92515999999998 71.31100500000002 115.44369 215.14952 25.424637 -127.64576 -259.30786 92.85219 -219.80998 18.296017000000006 41.473454 -168.58052 76.185135 -28.970284000000003 -56.385128 3.3110664 153.62257 -20.605255 -73.54419 -43.627094 -38.68909 52.88184 -27.539675 -74.307045 56.42939000000001 66.42262 -2.0709398 29.124592 -86.90037 -14.865963 -94.71068 10.947866 -14.646937 55.06097800000001 -29.851593 39.840317 -28.110363 -6.8330545 -30.183655 -41.49534 32.856075 8.280472 14.525921 24.237526000000006 70.2405 5.1434364000000015 86.2875 30.856443 -36.949448 21.796122 -44.82511 2.8656328 9.265764 -16.194326 45.804306 25.522667 10.6757345 -9.104829 -72.2637 59.77448 -5.5301995 -18.184277 6.9269880000000015 -35.697887 6.63522 -24.1001 55.22799000000001 11.5982485 -26.579153 2.059896 -49.392094 49.987194 -115.377594 4.7668870000000005 18.625893 -113.1721 27.455265 50.03643 -8.787697 37.110394 -43.168686 11.826759 52.973225 3.3690653 -43.12348 12.678904 -1.2719586 10.094222 -31.08677 32.189114000000004 41.66094 60.38336 4.228636 -39.854507 9.151908 -32.623314 -6.2964044 0.2274828 32.684574 -58.35302 21.875896 -42.994236 19.41248 -0.262318 -21.281473 -55.336468 2.7497072 -5.8327837 -4.702697 -14.896769 -45.655132 -80.847466 -18.647377 61.947777 -27.305454 37.366955 34.419453000000004 -44.033634 76.70767 4.7979393 39.4511 -13.396435 8.948698 40.796097 -18.767012 -0.022713363 46.978363 -24.110455 37.693275 2.9377892000000005 -10.928584 -57.28371 -18.57146 47.981403 -105.96281 16.300323000000002 -11.718456 27.346684000000003 -19.004368 79.31999 9.568096 16.780480999999998 -56.55991 -26.02937 56.97572
5 -34.59774 -351.4683 -47.6638 352.1478600000001 89.26016 20.888042 -48.227425 -35.25314 -1140.0724 166.35443 -295.2069 -191.35901 208.4897 -72.07938399999998 162.71086 -38.10226 -94.863655 -55.207848 225.05154 312.1261 -82.617676 171.42231999999996 181.68706 -221.71083 -128.16693 -111.86025 -79.018524 96.10765 -72.82126600000002 179.34842 25.817148 -57.45523000000001 -82.24897 111.87464 277.56055 48.691975 101.76245 -13.780838 190.37865 238.5905 150.14818 122.06008 -16.57951 208.27 429.196 371.0243 31.624117 -165.78882 146.86432 -50.453323 -44.27717 135.79891999999998 103.44115 -181.94511 -262.94833 -369.69482 -116.53126 -73.9506 926.23114 -0.056022204000000006 49.445328 -312.1872600000001 36.8053 34.3774 -51.30569000000001 -257.9463 -52.333145 301.2600700000001 -88.48536 95.19309 -156.58763000000005 -255.4744 100.08602 -153.75633 503.37396 45.143425 130.03784 205.58522 3.5490906000000004 66.43409 -62.4399 -465.50485 118.339836 81.80525 222.37762 -49.861046 23.120615 -177.55792 -312.79425 -95.393875 -1.7074558999999998 -124.914825 58.8408 66.89202 285.3759 -116.11438 -223.7094 84.94393000000002 75.1836 -163.99129 -79.86742 98.57926 -278.4501 335.72348 527.8996599999998 -69.205925 -31.417546999999995 -145.96204 -132.2475 -14.73689 64.53702 -53.593758 -80.38616999999998 301.38983 244.39056 256.41165 -461.42484 241.54887 -24.486303 10.877869 35.45538300000001 -43.44828 -340.49988 265.84512 -60.575375 239.57477000000003 -14.339747 187.72675 -9.6845045 -113.4322 -75.16797 -41.212444 74.03454599999998 -30.964718 -135.38821000000002 24.425095 56.12072 15.046709 13.596453 -102.08817 45.876534 -91.68697 9.89118 -3.2724628 75.84008 -15.430537 83.80971 -41.296215 -18.36874 -46.617893 24.04163 28.158527000000007 -35.241833 40.154255 102.57768 117.74249 -7.077381 49.038925 116.267075 -16.969578 25.68364 -51.35887 -13.560653 -31.558498 -32.43855 47.803883 85.21393 11.154358 -33.556995 -64.41856 47.533096 -45.205334 -66.70014 -17.315110999999998 -10.778136 -7.0358367 -8.832178 72.09609 12.425887 -36.448864 32.143982 -66.89865999999999 7.329215 -150.46602 1.1776403999999998 14.627101 -145.90341 73.50393000000003 114.324135 29.48631 38.05006 -33.482788 15.028796 65.75164000000001 40.997005 -66.29698 15.361202 6.975517699999998 56.96268000000001 7.7214413 89.9054 51.18312 45.652744 -14.141424 -94.58048 32.992622 -59.35178000000001 -31.625269 43.5874 70.29496999999999 -119.69525 38.75319 -12.27266 44.023956 166.81282 -39.858116 -49.7484 -22.508057 -10.587078 27.815714 24.913795 -35.66087299999999 -90.89655 4.759999 54.79725 -3.6096578 0.4955172000000001 27.63298 -37.25386 78.087265 38.54318 60.05375 -65.9861 1.5346124 46.895855 -32.28425 -29.336239000000006 88.27318000000002 1.7757077 0.8402367000000001 -32.672638 20.472532 -19.159367 -58.148144 56.16106 -49.159042 22.13909 -0.7854876999999999 89.86571500000002 -15.967116 37.089615 28.707108 0.01808703 -20.026505 -42.79431 74.3412
6 37.48451 -278.59866 -26.674648 250.41592000000003 -9.368299 -2.5404327 -164.93788 -18.894342 -578.3572 138.2847 -294.83313 -90.95085 291.68103 -33.201004 150.44481000000005 -1.1705348 -4.3573685 -109.97197 170.0707 298.1289 -63.333057 140.10886000000002 159.0877 -152.26529 53.64704 -107.01087 -32.198578000000005 -28.1469 -12.2498665 122.12065 91.12194 -173.00613 -18.938782 163.36942 212.14445 41.286133 112.1693 -58.05541 137.07314 121.981316 0.65283597 73.87984 -103.69501 225.45676 323.56992 383.78354 58.12869 -192.47833 108.84503 -76.767204 -57.79458 102.09924 111.86966 -8.521307 -199.84798 -160.69675 -131.97784 -26.040861 801.38824 -29.516388 -153.78243999999995 -328.7546 66.33176999999999 17.255535000000002 -118.38616 -229.29912 13.0078125 229.19019 -51.09009 16.504611999999998 -69.119354 -201.60538 67.13101999999999 -207.56459 388.52658 69.33426999999999 122.421 146.35315 -16.98153 36.52471 -28.004555 -322.3723 68.4857 39.709583 192.30386 -19.989208 68.76205 -185.31114 -273.43152000000003 -66.28575 47.144382 -41.007774 118.45839 -63.6713 63.056225 -95.55922 -188.43861 35.034954 -57.191807 -139.21024 5.095187 -252.44574 -200.89742 211.17442000000003 405.99033 -94.835396 -28.750097 -207.16345 -117.666466 24.969744 -25.841583 -16.567019000000002 -127.56665 173.6041 97.611626 172.83041 -536.5377 190.67613 -8.71491 -19.718681 5.3659363 64.21065 -99.0917 107.83385 -75.54597 142.09683 20.386591 -56.7683 12.255097 -125.48436 -80.09588000000002 -34.32338 51.867905 -35.12851 -99.082245 -2.0757222 68.15235 -8.233334 17.535362 -88.1685 20.057121 -76.64768000000002 -12.198377 -32.885372 22.735516 0.2614444 86.839264 -19.066053 -5.6281214 -35.695282 -8.092372 21.572794 -21.091118 -13.896346 68.50573 50.689224 0.61611176 29.611141 109.87153 0.14694059 34.59825 -39.123047 -6.944617999999998 -10.090073 -27.554705 63.49220699999999 58.79252 17.284449 -27.900822 -80.72504 59.462135 -32.29449 -46.697987 -12.469684 2.9029224 -15.831759 15.430881 49.536457 38.783707 -38.835587 23.287554 -68.736885 7.295377 -130.92348 -26.640394 24.35434 -114.44288 57.670227 66.23146 16.977476 55.659786 -31.297493 22.220074 70.32763 22.872757 10.478395 4.3254166 11.658222 63.010914 9.281668 74.05131999999998 3.0192053 48.986225 -5.4671555 -70.94 26.361687 -22.347723 -22.684587 20.825958 47.153088 -107.16334 26.396824 -13.583657 18.797165 121.650055 -27.038279 -49.48126 -18.488962 -28.51921 31.986656 35.505882 -41.885994 -86.6807 -3.184382 61.02781 -19.056816 12.591554 7.543255 -17.441060999999998 55.99709300000001 23.63942 53.68505 -57.904625 5.044482 15.873987 10.793308 -6.657535 69.13078 -3.4746442 20.1269 -4.629428 -32.87039 -10.067184 -45.459637 55.63812 -49.082 18.946426 9.23619 60.25398000000001 -2.8252969 47.51075 8.096230499999999 11.6971035 -9.67293 -68.69976 50.35214600000001
7 -27.014675 91.46667 14.101901000000002 367.9459 427.1688 30.331290000000006 151.7591 197.93521 -662.0096 -66.94160500000001 -545.4502 -52.165703 -129.1817 -309.62335 121.93221 -57.16128000000001 -170.3413 -167.54826 -90.245605 222.07759 146.57544 75.02975 24.318327 -54.09761 -94.542625 -48.91776 -125.440025 51.877827 23.975454 -293.33096 -349.49176 93.31214 7.2075577000000015 16.546038 -59.997345 50.644306 49.92024 10.899208 40.056362 -74.81781 27.85978 283.59933 72.13346999999997 103.01526 244.79541 146.89642 -142.61821 78.95713 347.3756 165.58142 -107.0505 295.4465600000001 -152.96167 -69.07604 -15.909227 -31.866188 -89.549126 -62.11095 246.96931 -53.696407 278.71237 -170.64586 -85.33459 -85.112976 -144.94972 0.37277526 77.679535 -102.17928 25.616476 17.897582999999994 116.94095 -61.946373 -20.041777 10.016546 204.96971 -83.16532 -54.575912 -163.8267 113.3778 3.8730516 2.7532718 -76.1225 184.00186 95.305984 -314.84106 6.8051276 24.581385 -22.027344 -117.636955 126.43812 -79.264786 -152.34462 319.88736 266.64786000000004 269.95657 -61.33870699999999 -25.53344 -85.306 -92.29029 120.61712 -264.7288 -76.07944 -112.69839 522.5471 219.31255 -62.951477 118.145515 132.67365 -176.77936 -111.05925 95.655754 -296.25632 265.95306 447.14462 404.55667 162.92732 -166.59845 -175.43639 134.07785 -74.02164499999998 69.34701 -79.02273000000002 -554.4313400000002 154.14607 -46.020584 -118.836624 -41.582394 210.7487 -10.653454 -89.72154 -33.072742 -67.66396 42.63619 -21.741386 -133.48782 -14.595479999999998 16.977457 18.00158 28.316605 -99.90339 27.098540000000003 -62.309578 59.489803 67.24875 74.197334 -54.00644000000001 56.57607 -35.09001 -29.655886 0.57843554 53.44074000000001 34.945282 25.299599 49.446022 61.83488000000001 93.16753 11.155353 127.2535 105.77394 -12.267689 49.54823 -84.1725 2.508117 -6.48729 -13.783414000000002 59.222607 26.10691 0.34759223 41.62482 19.555481 94.85041 -70.047485 -59.31273 26.03271 -34.901394 14.962679 -5.456176 29.827026 8.373553999999999 -19.663683 29.8614 -82.699196 6.39773 -77.85552 -47.018017 -59.22631 -154.96903999999995 97.71276 133.79602 -5.0013757000000005 27.55215 -67.284805 -20.920837 3.4160075 35.1986 -68.864174 13.614787 18.01389 44.87421 -12.463602 62.912125 76.39769 70.26182 -1.503403 -107.11732 33.622704 -35.216434 -29.019348 17.113751999999998 -1.5092986000000002 -66.649574 57.14261 3.7773507 24.380196 149.85599 -21.48056 -91.6074 -2.9477067000000003 12.46051 16.281017000000002 21.27521 -35.27500999999999 -0.8737039000000001 7.28085 37.633972 -12.102348 63.401646 23.202745 -23.25585 68.40215 50.094894 15.451183 -14.088008 46.892536 73.179146 -48.6924 10.195665 70.54802 -18.70768 -14.886941 -45.25939 -16.457570999999998 -89.84568 3.7305856 33.369522 -133.5707 39.4558 22.674963 88.49432 -19.355220000000006 53.73069399999999 19.749645 26.14465 -78.286514 -16.922323000000002 109.3135
8 44.298138 -190.0513 53.608265 307.77866 105.18734 -2.7765167 -27.034767 19.497946 -715.57587 141.2169 -470.0545 17.204247 292.07153 -112.940956 117.47198 -48.145576 -23.50103 -62.542564 148.19868 282.9359 -60.025635 115.841866 126.96107 -216.99196 46.129654 -70.81653 -4.5082107 193.0903 -48.070335 151.08026 175.81400000000005 -69.18888000000001 31.010590000000004 51.990223 245.67705 48.99508 39.91697 36.787624 177.12403999999995 9.763903 55.881596 44.63615 -88.5576 221.19371 330.73975 332.57104 76.26471 -157.07741 122.17734 53.908577 -15.86643 -8.955597000000003 95.60697 -53.01188000000001 -163.20143000000004 -177.95667 -83.49633 -71.49732 637.4998 15.985832 -41.373116 -315.44336 80.9961 19.016262 -64.20125999999999 -144.73138 -21.57618 206.04533 -37.678192 37.05767 -69.243576 -255.138 121.80923500000002 -223.61848 459.18292 32.179320000000004 78.55455 60.140697 -61.1855 20.088186 60.311634 -340.0241 50.506237 44.290718 343.59753 -36.35042 72.87338000000003 -140.7937 -207.75462 -8.499549 22.23752 -139.62086000000002 53.749706 55.10471999999999 92.230896 -155.93503 -248.40492000000003 97.67372 44.257553 -129.24892 -210.34256 -103.48014 -218.29335 177.55873 426.47852 -76.06275 -54.08593000000001 -126.42487 -96.539154 12.317569 -4.651172 -173.15674 -96.39947 185.21713 148.87556 135.56758 -345.2116 86.74146999999998 -39.525505 2.3459950000000003 37.039074 21.73364 -217.83968 30.488543 -67.60219599999999 162.09152 56.26411 -42.527393 -23.256220000000006 -115.05373 -62.40039399999999 -18.835602 66.687584 -31.022083 -114.47849 8.276892 40.618958 5.820117 -7.184357 -100.0171 -5.080617 -83.05627 18.415598000000006 -17.251820000000002 52.453686 11.219287 43.424232 -10.548353 -0.6822444000000001 -20.110075 7.999351499999999 -8.021208 10.267258 19.627031 98.69236 70.46528 -10.917932 61.161385 93.98215 -19.116003 19.547422 -15.877791 -1.8250587 -14.035105 -36.03023 32.54014 67.56453 2.0069199 11.161297 -66.8531 50.445114 -32.42123 -9.960314 -15.975207 17.8654 -11.318949 6.4229660000000015 81.53012 25.705156 -9.8921175 17.014215 -47.37979 23.012762 -121.63527 -26.997622 28.760725 -134.00758000000002 76.51921999999998 108.95306 16.922794 32.092384 -42.658928 15.213588 50.91207 34.70037 -30.861586 24.201254 18.321547 54.43429 17.559534 46.689598 9.226732 7.0201473 -23.957523 -64.94506 32.573673 -15.001254 -16.508032 26.028421 40.911564 -67.85179000000001 20.154018 -2.7971084 11.864483 137.76312 -38.30948 -41.21351 -23.054747 -0.014078796 22.97067 27.485348 -25.392405 -69.44359 4.2165256 45.098045 10.82769 -25.217157 24.849527 -26.259367 49.07268 6.790118 43.592655 -67.949135 12.084491 33.876778 -24.038069 -12.549511 63.524075 -16.990156 -19.683933 -42.99268 -2.640941 -3.9373245 -56.548534 34.44724 -73.49026500000002 43.250362 24.074701 66.436646 8.921603 70.62195 -14.860475 14.478335 -40.87578 -45.760857 74.76095600000002
9 98.516624 41.934246 -20.268818 426.5581 148.24396000000004 -10.838265 337.65726 146.67258 -805.9961 141.82387 -316.8540000000001 16.692356 200.50705 -366.3313 85.14578 5.858087 7.7451057 -69.588425 210.67662 170.34724 -117.99416 187.60707 207.31218 -95.9076 -89.25601999999998 -210.88647000000003 -20.649254 177.77553999999995 -2.8350325 -1.8771633 145.18962 52.021294 -14.053989 141.67235 225.58205 -6.8215759999999985 11.4726925 121.59271 -3.819993 159.38405 119.55781 61.366734 -13.0078335 147.82254 437.75488 470.75125 108.62715 -218.44604 -88.76162 -1.6996378 -37.668804 257.18222000000003 135.78804 -80.97527 -292.9430200000001 -51.594944 -92.349304 58.63809000000001 614.3092 -35.53828 -42.89788400000001 -144.65295 56.83886 72.37314599999998 51.057755 -147.33393999999996 114.59599 285.30984 -46.416412 30.87986 -163.94727 -154.05334 151.6888 -83.40095500000002 375.72284 30.243036 57.48197 210.49205 -43.45355 70.3781 21.807308 -356.1674799999999 -30.892740000000003 44.09505 263.56833 -14.502304 189.08635 -197.64948 -234.39587000000003 -62.83851600000001 68.82108000000001 -44.81201 -1.9785942 46.754383 -71.970024 -159.30177 -210.4373 125.20252 82.18352 -148.68777 -40.52618 -64.450485 -124.93516499999998 359.3961 570.7325400000002 -54.07764399999999 -72.10018000000002 -76.86169 -104.31451 -13.093984 16.756002 -188.4069 -93.71624 55.549328 107.53769 67.04535 -251.13512000000003 -3.926648 -13.329717 8.925915 -17.994844 46.700943 -96.55173 79.70658 -4.16391 167.5528 -10.222372 -37.119755 -12.832102 -71.76994 -34.786163 -25.348488 54.495598 -24.184364 -92.67009 16.399727 43.36792 -10.759422 7.1492867 -48.13837 41.90293 -56.012287 13.198349 6.634977 44.115875 8.450007000000001 76.425354 -23.232283 14.299726500000002 -40.15805 23.240892 23.524855 -12.432063 35.27023300000001 68.74434000000001 67.5566 -7.1476583 54.220154 48.134445 -11.695115 26.587044 -12.112995 17.684551000000006 -19.230293 -12.940179 33.959824 30.836502000000007 -3.1244970000000003 -5.7649527 -70.46089 22.48235 -0.33421862 -26.205683 -13.4544735 18.441889 -16.473753 24.052767000000006 64.96709399999999 33.320145000000004 1.0970168 5.5442724000000005 -46.045113 29.356611 -86.76446999999997 -6.683372500000001 30.254868 -57.55611 43.323635 112.81167 22.606033 39.028526 -20.752926 -0.8725484 32.414757 9.49281 -40.8505 -13.235834 -11.947141 -9.672057 -17.601513 50.98282 20.097858 19.164352 -31.856754 -57.41804499999999 21.07508 -18.91935 6.9206710000000005 21.716125 70.44673 -83.85131 49.47946 0.09697896 24.727722 180.63002 2.3139234 -45.466705 -17.380985 -10.001641 -46.235367 -9.255871 15.063873999999998 -68.38414 -9.826033 85.66643499999998 1.4752083 -10.249723 29.49976 -22.977308 25.19555 11.27607 42.32595 -25.056873 -15.135741 41.062138 9.834334 6.6821613 62.943882 18.567144 -12.069635 -13.862054999999998 -2.4805636000000004 5.7776265 -41.914135 9.599428 -66.33594000000001 23.806839 20.965227 49.275738 0.29844248 44.413017 -10.656878 -9.3040695 -47.700737 -27.464209000000004 42.33814
: 33.763259999999995 285.20786 -460.1935 -193.88521 14.675397 -24.517834 -213.5578 191.00209 -110.41521000000002 -159.48706 -202.37607 268.32742 -203.3122 -828.53156 63.553364 87.82018000000002 -135.45717 -209.20462 -217.25424 -45.137775 115.524086 -42.80529 -89.46386 99.75243 155.58046000000004 -81.85231999999998 130.11433 8.767816 -7.1846356 -19.176722 252.76389 134.08061 70.17184 -65.59421 -209.07365 13.221509 59.49574000000001 46.000618 20.46062 -82.42576 -67.61816400000001 -172.62604 221.84415 181.97435 222.72667 255.4724 -29.437918 210.79465 78.76890999999998 181.22891 -96.025375 -44.778893 -110.09156000000002 -200.60071 188.59329 11.403066 151.87357 -112.51209 0.79544353 -11.786535 34.998833000000005 -95.239265 -222.69301 166.97696000000005 44.31724000000001 254.02661 -149.28799999999995 100.75939 -93.88117 -13.799507 -0.63670206 -42.6104 -14.525771 64.836174 -7.2352032999999984 -65.18462 79.01715 -34.474616999999995 -43.13636 -81.48724 -33.128952000000005 183.2373 176.49289 -64.9632 -162.95483000000004 -44.868916 -185.56955 146.38881999999995 -242.19087 147.24938999999995 2.0789428 1.5920112 -20.763788 206.63777 57.04641700000001 -176.551 188.79227 -17.236301 14.745631 252.7129 -157.95805 -347.26245 10.640626 -285.29956 -230.74812000000003 -61.26854300000001 201.46729 47.305973 -51.479538 -28.979218 -119.78656 73.38863 84.60712 82.80823000000002 -201.47461 -96.22308 173.33452 -132.43825 -94.16226 -102.44597 26.85277 -25.669931 -29.54735 -2.901575 41.715668 -45.030655 63.049023 -313.99506 5.2539315 -28.99793 -53.8551 -1.9022524 44.557278 30.01741 -40.528236 -2.3309526000000003 77.273415 15.245985 -14.742272 -95.33071 -21.081554 -14.289704 4.13895 5.810349 -1.266947 -16.49935 -22.642344 -46.736126 -10.348306 25.266457 -43.46268 33.811127 22.002218 -23.66255 46.887836 44.78899000000001 34.310524 52.698433 24.94656 -14.50156 7.7950487000000015 -57.478603 1.7002985000000002 4.945916 -1.378216 16.238321 23.382986 -9.207836 14.380676 -16.69578 41.064766 -7.781961 -62.917652 14.421695 10.098527 -7.299889 -22.300373 -5.313003 5.7635255 8.262691 15.280024 -15.208488 17.927574 -75.33771 4.385738 -4.085634 -69.08587 38.171795 68.01888000000001 -8.843657499999997 43.38799 -26.459190000000003 0.95402163 19.803246 16.582114999999998 -19.534071 -24.72379 12.8042555 -13.481562 -1.3766055 3.6115742 15.7476845 38.04197 10.974436 -51.806843 19.10376 -19.90551 -26.927216 21.158556 -11.286936 -67.82098 -1.6902323 5.8924375 12.841286 -19.114557 -7.4143824999999985 -26.107212 4.0450487 29.560884 2.2342787 10.197056 -21.993872 -46.071854 -17.815273 26.984116 8.631708 37.78675 4.5902677 -10.951507 15.095481 15.149071 20.451183 -2.8171241 -4.782811 25.755678 -10.112825 -0.7215602 26.017736 26.991621 44.82832 -16.097970999999998 -31.882357 4.759543 -11.2262535 23.1426 -56.31063 21.121935 -27.244099 30.587755 -12.42849 45.63059000000001 14.253685 -14.972052 -33.305466 -8.514561 25.934578
; -153.08876 95.8776 -194.29665 -82.7634 225.71361 70.92756999999997 -25.537664000000003 82.25404 -190.72717 -13.402968 -103.25163 49.381226 -95.72749 -718.9493 52.68561999999999 63.27545 -35.09525 -191.54973 -80.7532 -9.062646 119.630005 109.55665 -26.136847 92.47706 22.64553 -13.465174 42.216743 -295.7497600000001 14.794825 106.98744 15.237785999999998 -44.7511 138.84627 -42.855785 -60.90527700000001 -12.112545 -4.08743 76.88293 28.210487 -13.595568 39.0725 58.610523 207.7773 37.129665 229.04701 294.7876 -22.741167 106.924484 -10.557706 -82.1877 -59.7815 -193.47585 -119.061745 -75.756485 75.391235 211.03842000000003 39.55193 -83.093666 114.499504 -118.33302 -32.91706 12.13774 -39.387234 106.23425 19.665308 181.86584 -81.98338000000003 -175.41893000000005 -16.710224 -61.201702 18.080872 -67.22892 52.62474399999999 -8.994709 -5.42656 -142.30847 85.380844 85.43956 -111.74531 8.5411825 -16.265214999999998 267.8684 113.5095 74.18654000000002 46.58744 40.10089 -28.968801000000006 97.94149 -31.570713 -27.498669 -16.340912 14.554027 -25.48599 141.18616 12.148448 -140.09344 201.9332 -23.708588 12.514884 160.4872 -133.82616000000002 -231.84203 -90.07146 -214.37628 -71.09852 -60.598507 73.73545 105.64921 -44.708744 -48.1024 64.64655 -119.87098 38.807156 101.2889 -218.02576 -51.47354 114.490524 -154.15973 76.73489000000002 -107.03608 -12.573678999999998 -7.8822837 228.95761 79.27856 138.81761 -85.33608000000002 44.905407 -102.66822 -5.9133754000000005 -33.905666 -23.229433 -5.7076116 3.8798175 19.614397 9.120936 37.06043 52.27215 -5.8655767 -8.929544 -33.811832 18.183775 -19.82074 9.874907 4.3868895 -3.7425063 -1.1975336 11.655543 -10.42076 -7.5294275 -27.252754 -42.03048 1.8808854 -5.292477 -4.487621 11.127609 27.646973 29.051075 33.114365 7.463294 -3.0782862 3.8611345 -44.147026 31.52277 -8.268186 5.787881 31.798471000000006 1.0006559000000002 11.365372 -16.304062 2.9512398 15.656135 -11.366518 -40.201942 -4.570538 -1.509908 -3.3508666 -14.275238 8.754328 21.267015 -1.8411069 11.423459 3.5454764 -0.6092569999999999 -34.45517 5.228378 0.39082968 -12.651057000000002 8.120061999999999 39.79332 2.004747 16.28931 -18.154144 0.6889396 23.985325 18.024464 -6.7959557 6.197326 5.6640906 -18.23586 -16.457418 25.257408 39.028526 21.977015 -23.894583 -42.97179000000001 31.217333 -12.404296 -2.9809072 8.933722999999997 -18.197245 -32.123383000000004 -0.26340526 -19.069738 0.9611983 -20.621426 9.300566 -25.152939 -0.06334555 -1.8101926 -5.5671725 -14.346166 -27.130033 -28.448078 -15.331499 8.831425 -14.168971 23.870207 -13.95481 -14.659438 3.3954647000000007 -4.0689660000000005 -0.97818685 6.9543095 5.0443153 1.8465381 3.8194103 7.182945 29.299192 18.662165 46.314884 23.344273 4.265197799999998 -13.089407 -12.446114 -6.518479 -37.25466 -13.880868 5.083085 4.9359769999999985 2.2275739 13.6517 16.873673999999998 -5.232522 -24.848608 -21.31515 9.974849
< -53.07285 50.249355 -271.52966000000004 29.270674 13.295146 -41.006886 58.713406000000006 50.03026 -141.02982 -15.243604 -104.83259 195.17348 -82.5708 -247.52711 -93.50998 20.080359 -108.20991 -95.44519 -11.320388 0.36596984 78.980576 -127.399506 -23.599178 88.14726 21.703588 130.64435 42.271416 -108.39881 16.727646 -109.818565 169.79912 56.668976 23.299673 -27.83881 -91.75894 12.157564 101.77568 -17.197029999999998 151.25562 -136.10981999999998 80.44705 -15.466492 -47.106358 29.2752 69.86095 204.19199 -17.431166 97.56727 11.960263 -48.790894 112.353294 161.30100000000004 27.316135 43.201748 81.338646 -93.93258 51.64912800000001 23.324003 121.26206 -24.5883 33.34604 63.367424 -15.772812 49.850266 62.650696 158.1624 61.18884300000001 87.1963 -32.751556 79.99710999999998 80.6293 -42.83055 75.783585 -173.00291 -90.64996 -11.212767 82.45559 -2.4762816 13.472657 9.258778 -67.29692 245.8001 -140.30408 6.555844 -231.14847000000003 48.50281500000001 116.45525 79.337036 30.84551 -56.34964 1.5349698 -2.619527 -53.6777 -8.23563 -68.310425 -1.7275169 21.920662 23.266445 20.907583 -37.10599000000001 -121.73078 -223.46082 64.88747 -151.42514 -119.501976 38.71081 76.87246 -24.458548 -19.589954 -22.51384 17.167091 3.298971 63.30028000000001 43.31496 -58.420517 -0.54294944 -118.31046 -77.932884 -9.242877 -5.8595760000000015 55.538845 -73.29881999999998 -40.863808 -64.69830999999999 65.8527 51.557594 9.603986 -146.98713999999995 24.914833 -33.64253 -8.222861 23.620754 11.451823 19.881695 -15.705285 10.098183 15.148222 11.820474 13.604982 -14.535943 12.102643 -11.526961 17.516184 15.075006 -3.270395 -7.753063 8.215365 4.817654599999999 -12.055528 -12.77604 -23.512817 16.223923000000006 -13.670942000000002 8.733825 15.149086 11.246685 8.89907 12.296188 -10.005098 -18.58745 28.795347 -14.931617 13.60888 13.857254 -3.7457354 17.701546 7.897107000000001 -10.619312 -10.874975 7.308702 4.6770396 -22.430422 -12.6609535 -1.8252205 -21.93215 30.071125 14.799501 5.1624994000000015 -9.299513 -9.040945 7.061029400000002 -19.38443 23.914476 -16.307837 8.64075 -0.57941103 -11.770428 5.138826 22.692408 -12.12178 20.012445 -31.503029 12.9855175 21.715343 -0.64921045 -0.6855671 -17.401184 -9.456339 -3.6670551 -24.191841 13.423441 14.993343 9.825892 -17.084719 -11.257256 13.0899105 -13.187264 -7.9083866999999985 -3.1365232000000005 -13.140660999999998 -44.947906 22.57219 -21.65948 -0.9607091 81.87826 -34.565684999999995 -34.196655 1.942875 -1.396312 -4.0353665 1.8492444 9.932229 -39.61644 -16.113966 16.446382999999994 -18.936148 8.693089 14.649544 -3.1809580000000004 3.8444083 10.690563 22.921904 -3.9401565 7.5464697 14.520653 -4.8365645 4.389722 20.732792 4.4845285000000015 8.236237 0.8478629000000001 5.7059164 -16.26406 -8.837482000000003 25.115162 1.8934324 16.58045 1.7429123 6.4539413 -12.399604 1.9768777 -3.4142897000000003 -11.762964 -17.97061 -12.362132 10.110838
= 77.491936 513.76825 -243.31824 -259.45758 -148.94365 5.77568 -96.40998 457.90714 -2.733882 -62.524815 28.622961 601.16895 -161.1747 -107.57805 76.092125 -196.89676 -166.70303 -39.04266 41.61268 -193.85336 -48.69217 -117.654526 92.50339 17.883049 104.28612 139.95178 67.36166999999999 517.9392 -85.92967 -69.92179 406.13715 57.414246 -46.703644 17.162764000000006 117.15382 -107.5274 3.5230980000000005 165.38138 371.65002 -57.533848 20.569077 -200.33614 188.65141 155.69191 -17.688778 385.60892 145.87708999999995 224.247 231.63976 296.84473 -35.735706 72.23643 -48.370354 -8.456314 -67.8295 -58.84779 135.02002 -62.036087 -39.14621 -18.759129 -37.24033 -50.86842 -426.05954 166.56886 133.57658 100.89411 -206.75047 72.85844399999998 -124.45754 108.65554 -145.03488000000004 -238.27716 13.035344 -144.76869 71.6962 15.248667 117.67654 91.00987 27.197739 1.719205 -22.585281 -40.93339 -101.6473 -182.91234 -83.92347 -33.146355 -50.20753 -92.33768 -84.7066 72.91143000000002 79.58075 -181.76677 -128.5429 -70.90512 63.721436 -115.446846 44.508545 94.53462 102.66844 254.08986 -239.0714 -400.7138 130.87613000000002 -175.23112 -80.818184 -36.29986 42.111027 -108.15322 135.65723 -76.07285999999998 -191.646 73.70139 187.22906 107.851364 73.00542 49.09105 -5.6595206 -95.737785 -177.06175 54.43442 200.27548 -27.930868 -390.2565 126.69813 72.32355 122.28388 -106.86392 -211.45134 51.89092 -56.910774 -127.975266 -57.489773 96.230576 2.5483322 -68.7322 47.975426 101.78628 24.403423 37.248123 -183.85208 43.386543 -119.01965 40.95713 22.476646 14.782089 9.327649 72.59183 -27.340261 39.276115 -22.857094 -68.894936 67.48475 -14.990196 8.826393 62.588043000000006 87.7506 -8.125066 57.574528 25.374445 -23.370272 5.9898815 -62.27972 37.307392 57.55696500000001 17.675991 -21.917755 70.85217 -21.727804000000006 -55.958206 -96.90163 -3.2761697999999995 -22.10292 -87.53438 58.70401 -5.4499655 37.377647 -49.19036 38.454556 -25.405455 18.474987 15.482091 -61.70166 40.064117 -166.09913999999995 18.211222 34.823547 -128.12454 23.773045 164.82585 -60.671658 37.465714 7.423402999999999 16.456488 36.27121 -6.2410293 -62.88707 -41.98447 43.250347 29.700954 -24.381227 16.304392 32.98742 57.72506 -78.69924 -23.627394 89.3215 -80.789764 -44.78828 43.0136 93.06022 -49.736256 32.226234000000005 -11.230844 53.14610699999999 191.03355 -72.82271999999998 -39.54868 39.04441 103.29861 -24.477589 -18.343016 -72.50247 -116.67034 -73.05617 60.68611 -36.20939600000001 3.940661 27.88246 -28.681528000000004 74.54552 6.5093794 55.87211 -24.141678 34.280357 -5.7384010000000005 20.304987 -32.31345 23.994934 49.872574 73.60198000000003 -68.23548000000001 16.368107000000002 7.210851 -29.588032 59.11753 -84.398865 53.858032 -61.94853199999999 -32.459026 -49.66519 92.93286 86.4461 -51.27534 -77.058205 -37.371445 112.29455
> 17.088911 -24.821152 -204.1445 61.79026 138.98932 -48.280346 -236.85074 58.71589300000001 -184.73085 15.748226999999998 16.997269 -39.50486 -99.25232 -224.75464 60.109463 54.007225 -87.24935 -78.86873 135.43872 -39.535633 15.989504 34.580395 48.012524 1.3323475 -50.003048 50.444336 51.51666 -70.5365 8.472895 -109.87026000000002 -15.707139000000002 23.548004 1.0300128 21.805248 17.067474 29.173666 -16.13039 -44.860104 98.062294 69.79026999999999 -32.092274 -36.86435 41.43472 66.58381999999999 89.99981 226.70476 11.391238 57.802372 -50.226906 60.235947 -73.69552 103.0148 -2.2306726 -184.77522 -32.11011 -1.2950282 43.91335 -60.78594 95.11785 27.124231 24.148869 -79.674065 -57.300735 67.20340999999999 -12.318347 55.660675 12.380954 174.23508 -59.42769200000001 106.551285 -60.2639 34.09743 32.367847 -68.53014 -126.82583 28.291843 5.884258999999999 -61.23156 -36.319824 -47.590317 -33.398575 73.14950999999998 159.5446 -13.933435 -123.19027 11.61915 -65.16003 -48.041313 -174.81223 -12.985003 45.156654 19.12879 -177.69086 -47.6042 103.96484 -0.038451135 42.372772 -14.539087 -50.147587 9.882096 105.752 -150.95493000000005 -15.596067 -121.65518 -28.062607 -35.89353 74.09119399999999 -65.84879000000001 -72.58595 -49.667503 -12.501463 -114.7241 -7.858241 94.41841 -51.253437 34.908695 -45.97961 43.0201 -63.17429 37.890198 0.6721588000000001 -46.441467 3.0393424 20.386995 6.1002839999999985 -9.940201 -30.255423 44.46688 2.7088435 -45.004074 -32.830321999999995 1.0029917 8.441653 9.014904 -21.634438 11.390295 38.67639000000001 7.1053586 11.811876 -45.82932 19.070911 -45.767086 -7.703581 4.5036225 11.435937 -5.634803 34.294940000000004 -28.471485 -12.080389 -21.99333 8.089003 0.27310133 -8.597644 31.62053 24.879297 16.4552 14.658732 2.855805 29.160866 -3.0805292 -12.355329 -21.84962 -2.8138173 4.2931857 8.669221 0.5006020999999999 45.33222 -4.0139885 7.8477134999999985 -38.103306 -24.486332 3.0299993 -35.92994 -3.7774153 9.934718 -2.2514966 -9.621285 15.195885 -2.6252887 -26.587322 22.215067 -27.175694 -0.5950639 -55.324677 12.77372 12.92949 -58.600548 21.268635 59.275078 15.952304000000002 1.008241 17.917046 5.041731 19.03699 38.301964 -7.0021605 -6.936944 9.218239 -1.7967407 -4.8183856 30.808018 6.0453606 31.721533 -3.9744167 -21.1565 1.6987622 -3.6119823 -24.499023 10.77422 -0.37497944 -48.653442 -2.2370584 -6.7800417 4.0924416 54.05366 -12.817836 -20.540447 15.003138 11.399196 -10.43166 -11.777177 -12.092958 -18.688211 -12.964293 18.405052 12.53929 17.950363 15.11959 -8.466332000000001 22.95668 14.718419 24.90938 -12.391264 -5.461499 14.406361 -20.937536 -3.0201793 9.963994 12.851095 22.260899 -11.048378 11.634342 -1.8602594 -24.115267000000006 11.175087 -9.937456 13.869813 -3.2066128 12.599835 -18.300169 47.359386 7.5242434 -25.597895 -8.975597 -12.067048 53.369976
? -119.247215 -4.5149282999999985 -67.3456 267.2741 444.61005 -98.893135 73.45013399999998 37.220043 -598.72266 57.208138 -504.27252 7.2723464999999985 8.879147999999997 -268.689 205.14856 -42.999306 40.162876 27.744778000000004 -29.154808000000006 214.8856 33.953938 99.618546 -51.55088 -92.55886 -131.46565 -156.63263999999995 -31.580898 28.542458 -94.15799 -33.738052 -180.7136 118.72285 86.72189 55.400257 -99.6983 99.52215 -74.34445 87.94704 48.74144 91.893555 54.64863199999999 222.9663 89.958626 79.32915 318.6604 318.5656 -11.2729845 -144.64319 127.03999 59.219933 124.28749 170.77913999999996 -115.80737 -68.031204 -18.358555 -27.80796 -128.00269 -45.955486 239.69868 38.79193 161.29045 -199.43866 154.30447 -81.346725 -138.92317 -6.8627853000000005 56.34971 255.92963 17.38107 -58.23083000000001 8.160559 9.761817 -44.43188 -91.73526 316.9306 -53.90945 19.389744 -154.01301999999995 -0.24892126 -49.153812 21.644245 -23.535923 297.02924 69.59949499999999 -11.233631 -29.879618 -106.20053 -96.46237 -274.52383 203.94307 -21.14577 -68.483376 192.08688 276.99005 122.490944 -20.001255 17.024921 44.77055 -57.730164 70.790886 -109.635544 89.29785 -74.82970999999998 25.345047 163.998 -47.112938 0.4717123 -78.07145 -244.66513 -106.107124 -67.03343000000001 -346.80515 136.48145 71.483 72.43748000000002 64.991295 -162.11969 64.9901 34.705513 114.44624 0.22374363 -74.88976 -261.5849 -27.656805 -180.25157 -110.24543 -7.096778 201.67386 -15.271435 -58.136475 -64.07469 -41.17355 55.174824 -4.1664624 -124.7827 10.536558 71.04836999999998 17.530394 30.547667 -101.840355 28.465134000000006 -45.054577 29.332792 5.400654 85.14485 -19.434427 36.25858 -24.521704 31.287539 -54.27355 44.3791 33.12763 12.429562 23.093996 68.55246 70.3816 -6.6456685 74.43754 87.63772 -25.706276000000006 17.410816 -40.35604 -15.077451000000002 -1.3846691 -15.557218 38.745884 30.267088 -19.99892 31.043972 -93.62914 47.970573 -29.071344 -50.03484 -0.6897840999999999 -18.940634 37.50629 -17.813604 52.08514 39.02035 4.1542754 57.39918 -69.45159 6.1030293 -71.72482 -4.5235066 -6.9939175 -136.67372 115.86416 89.763725 8.3889265 33.807766 -21.756023000000006 -6.0359745 32.44424 22.88881 -16.820084 37.46384000000001 -9.986658 48.47861 -26.13953 46.18388 50.690983 19.13019 -20.518978 -67.90098 47.751823 -56.117054 9.502423 15.981235 31.20235 -35.81272 50.657948 -18.938759 25.307545 112.31089 -17.395449 -33.888493 -23.539839 4.220837 2.6116037 15.272696 -15.036736 -0.51950353 -36.01762 45.97991 4.859505 -22.087233 33.439972 -26.104937 38.830765 12.2164345 25.351906 -39.416843 36.101208 50.740925 -33.410175 -18.627403 48.042885 -12.037017 1.533961 -53.16627 25.827448 -16.590141 -57.64822 72.434555 -65.638725 52.49003 7.776982 54.36799 -8.207166 108.495995 -4.9508790000000005 30.248238 -81.69752 -15.986574 106.06576499999998
@ -76.44194 -180.04405 -265.64178 223.77951 114.42008 83.995605 -311.11404 -212.31754 -643.83636 212.1884 -300.47964 -40.25033 120.32997 -73.09612 163.04492 -2.9966342 -32.005436 -8.874082000000003 55.602985 215.63701 20.49378 86.958694 139.17481999999998 -34.535736 42.651276 79.256096 0.11936331 -90.04344 32.009215999999995 181.15625 206.22731 -136.1283 10.738209 102.06333 230.16959 79.90451999999998 41.54955 92.67873 503.93243 -50.212494 32.22788 -158.25626 73.0349 98.03487 241.4015 391.2509 40.37283 31.895508000000003 232.78725 303.74677 35.320053 -9.271606 77.28073 105.07992 -142.17422 -468.52316 34.66049 -58.736477 577.04626 -33.25589 277.00967 -136.91489 215.28192 46.540913 4.8985353 -86.26594 10.841322 6.1888394 8.773477 57.722847 45.353195 -297.0443 188.0167 -233.83788 88.992775 25.132633 107.197815 108.01453 -110.35522 32.189598 94.85736 -175.5826 -174.10353 -22.113255 166.90079 17.572744 -46.035282 -129.19968 -5.306284400000001 4.731058999999999 3.4562862 -91.833954 -109.7218 -35.553486 260.44272 -153.00949 -268.0932 206.30446 27.040926 -7.5374089999999985 -174.05362 -77.29865 -155.36826000000005 -154.32079 250.90277000000003 -51.813976 -9.133665 -167.04633 7.0542784 -152.37604 26.478394 -214.81963 11.070712 167.21567 339.1119 24.848877 -210.02213 -124.224846 -51.932434 84.96463 89.611855 -82.06515999999998 -177.51779 148.76158 11.405272 98.473236 -62.097637 -63.61655 10.331612 -159.67274 -102.79844 -13.901935 96.33575 -13.456195 -121.69799 54.57509200000001 44.82656 2.9840739 13.385987 -103.404526 8.291664 -134.12949 8.755536 14.827838 20.424463 17.736034 30.157076 -2.6266642000000004 23.179892 -23.58175 0.6894971 15.240351 6.162334 -2.3446493 48.118484 119.00518999999998 -7.8484917 102.73253 65.15809 -12.088111 34.627525 -37.980198 20.421814 9.312286 -25.781687 9.16005 97.93991 -19.191795000000006 11.463528 -122.943886 26.68205 -1.3895699 -48.577713 -45.493927 -3.3809927 20.307915 -33.0948 76.236946 13.498895 -54.126926 -3.5738091 -105.156425 -5.772688 -113.56805 9.085056 -1.4490888000000002 -106.11625 27.24035 56.664925 5.0065513 79.22771999999998 -22.429745 22.019651 41.228493 4.678092 -66.643684 8.520847 8.598505000000001 55.59009 -21.664713 61.63558 4.3818215999999985 26.456263 -45.842667 -50.536472 30.88744 -12.392972 -8.720255 13.889646 84.106705 -75.4487 48.939754 -49.59893 16.56519 155.99513000000005 -34.565742 -54.79098000000001 -25.597784 -7.6676259999999985 -19.832481 -15.966819 -6.574319 -118.35275 -22.281643 69.51396 -18.829813 5.330304 -4.245358 -20.546173 84.73250999999998 16.82336 66.762596 -38.48326 -4.9387712 49.59122 -21.988903 8.064915 48.751987 -8.33901 1.953804 -14.373088 19.266070000000006 -28.918144 -24.007732 73.38842 -65.64551999999999 24.15437 15.62141 46.49148 16.375529999999998 20.878197 -8.099497999999999 -3.4928346 -35.71781 -48.560154 97.6234
A -113.90094 56.41893 238.81378 583.8011 80.65375 34.368046 -413.55884 -310.0461 -364.60974 45.6186 -258.96045 -118.63302 22.253149 71.5296 -31.388367 -150.92119 22.1255 -39.366104 199.20811 -58.917606000000006 2.7109895 53.26845 62.865665 -58.37891 -57.519165 64.12733 -125.92992 -81.907646 -55.152203 -258.76117 39.024666 15.333988 54.23494 50.979893 191.51256 -80.88580999999998 -47.714825 35.47889 412.67072 -36.152344 72.11383000000002 -105.768105 -88.93021 17.545464000000006 85.361374 358.04514 17.729776 -11.997007 -256.67136 252.50471 71.70776 446.80298 -122.94861000000002 328.77826 -74.21246 -456.35944000000006 53.537834 -25.2038 342.4883700000001 -61.02481 347.7273600000001 24.926807 -43.031372 153.22486999999995 -61.888103 68.30621 95.87776 71.82387 60.25879000000001 105.45286000000002 -26.453564 -158.51053000000005 84.265884 -140.6775 -96.150185 193.61638 106.381805 -32.109917 -57.11213000000001 76.093834 40.80769 -141.21399 -338.61728 -47.73154 151.53915 120.26327 -201.49205 -139.19952 171.43193 60.320354 143.14983999999995 -144.29013 -140.22281 -363.25208 160.18773000000004 -77.00909399999998 -173.82266 90.84473 -58.137783 -22.428984 -84.93347 -401.10452 -118.584595 -77.05154 172.08649 -4.7377315000000015 -42.79655 -245.811 -203.7338 -268.50095 78.58952 -703.4688 -95.12558 257.36423 245.38882 79.306725 -724.6462 -174.30377 -23.938944 -56.47966 14.808113 -80.75888 -289.6500200000001 56.445103 -23.90975 113.601746 18.377958 203.94951 -0.5311435999999999 -165.54297 -94.40675 -21.998999 50.56552 -13.606598000000002 -181.10036 -1.4445965 107.64017 14.246437 41.415916 -106.28612 47.27617 -142.68243 14.196886 -22.898731 50.57758 -3.4483044 106.13231 -26.39002 -29.010340000000006 -71.33051 -4.428596 20.806639 -1.2015681 55.43682 39.76442700000001 115.60488 -18.72411 90.824356 15.569839000000002 -26.995808 40.395218 -25.744362 -17.682404000000005 -12.259012 3.678457700000001 65.865875 112.58486 -20.634644 -4.783591 -145.61456 -28.319408000000006 -17.648134 -70.88481 -24.135523000000006 22.465036 -8.883118 -49.2784 106.403244 14.626166 -31.174204 29.499952 -79.56629000000002 17.6566 -167.47008 -7.654155999999999 26.48361 -154.00453000000005 15.720322 75.984116 4.395872 82.18366999999998 -9.589388 25.854952 71.15613 9.017335 -39.018887 64.11708 -29.900642 24.923773 -44.044407 51.074245 32.602123 24.826029 -34.332455 -35.50673300000001 30.738111 -23.514177 -28.924875 -0.9240416 124.00333 -99.557625 29.79926 -67.98183 17.129514999999998 139.25576999999998 2.384498 -47.96967 13.034812 -18.345291 -52.60131 -33.743767 -35.30828 -145.62 -13.930204000000002 41.702465 -59.60736 8.425825 26.773989 -77.265816 108.61132 9.805365 88.54285 -19.559368 14.437886 41.647923 -19.51063 14.197558 36.864445 21.126373 8.020154 -1.4912732 -11.742047 -63.39231 -31.68391 70.655045 -142.1363 -16.982817 -1.0053463 59.645676 2.813496 26.659534000000004 30.015549 19.340847 -32.88838 -42.18653 113.38968
B -10.50142 -165.56788999999995 122.61189 564.8131 120.03397 32.631896999999995 -183.5567 -43.532776 -886.91986 97.73312 -361.05286 -117.30482 182.20476 -21.6837 101.39718 -13.242926999999998 -77.03052 -95.84858 285.85327 251.76514 -125.74438 146.74057 132.9268 -122.57215 -42.57653 -83.409935 4.7186713 104.904785 -81.723625 -62.847775 172.08437 -33.87246 22.314726 109.73531 318.5636 -34.254220000000004 -5.88678 24.297985 168.74483999999995 30.374624 74.53039 -1.9454997 -16.28743 67.4824 401.4589 498.90176 78.22697 -84.709816 89.67519 177.24896 -94.61692 168.3775 66.00995 -130.2725 -307.4671 -75.33097 -98.69435 -41.82352 745.4441 -126.08594 11.572634 -191.8699 -59.087082 121.86942 -103.20916 -86.819786 60.728333 216.35794 -116.83419 45.60067 -186.58228 -181.56235 85.499565 -181.06001 293.29492 58.04558000000001 86.853584 128.10387 -104.3019 63.35572 73.5979 -525.5618 103.92051 -36.92746 307.79617 29.532804 96.514915 -182.33994 -141.40872 -32.479042 30.31238 -122.539 13.920953 -159.84293 197.70164 -155.65327 -209.86131 60.512386 -61.104736 -182.21333 -110.39136 -96.98777 -243.16858 269.83774 555.72156 -88.64357 -53.41705 -91.83177 -114.296974 -45.26177 66.41658000000001 -171.52193 -50.214962 199.15915 125.28887 130.24358 -422.78464 2.5480053 2.5850167 -22.333546 -28.714642 42.424706 -243.85182000000003 15.572865 -23.426388 92.66898 2.733363 64.54043 -34.83263 -144.43868999999995 -72.217445 -21.89275 69.98608 -30.003712 -133.33495 -11.295603 58.734848 -1.4001617 23.37014 -77.62496 26.94376 -103.48175 6.6951694 -5.969958 48.003246 10.597016 109.74561 -10.601001 -16.48586 -46.463394 20.763092 13.21114 -6.804195 68.33440999999999 110.764656 86.27452 -10.991112 86.27260600000002 65.4518 -22.44654 8.551497999999999 -28.755665000000004 -11.967326 -29.298964 -21.363087 76.65123 95.09661 22.384872 10.205963 -83.93965 16.771318 -12.3778925 -14.356609 -53.06484200000001 4.4839773 -31.697649 -13.736504 96.19219 52.600838 -26.150387 7.40523 -106.60318999999998 34.880497 -161.40717 -20.201128 26.335949 -112.83857 86.80775 110.91721 23.099407 50.225224 -49.342625 4.4272230000000015 81.87866 21.488773 -28.187435 14.059446 29.458889000000006 8.588981 -4.419651 40.613304 12.7160225 30.528824 -14.763241 -63.93460500000001 31.456972 -4.8443003 -28.451284 -1.5871338 82.294426 -133.7483 43.149574 -28.044546 7.2014155 157.81955 -22.469742 -59.10663 -26.63878 3.7436062999999993 -6.4648542 19.017162 -25.932144 -126.22528 -4.9382377 59.54026800000001 9.397906 18.118092 17.386515 -25.601816 34.16454 33.25407 63.686523 -34.518814 20.136988 43.747993 -32.66867 -2.2193468 54.68465 -5.6857266 1.3269272 -21.889486 -2.3286908 -19.677017000000006 -69.73975 47.903122 -75.95035 14.39277 35.41678 69.55218 -12.011501 51.048565 -15.279597 10.7467575 -29.772327 -54.751186 92.33361
C -93.671906 -410.9183 -32.483395 337.186 124.24201 75.414185 -412.74875 16.377126999999998 -717.8871 111.164825 -371.58594 -181.21524 267.2553 245.10706 138.1646 -80.65401999999997 -21.239208 -38.24628 45.31234 330.81952 18.59625 62.514996 153.71942 -205.73657 147.73453999999995 48.4043 -19.369766 8.492405 -98.18937 103.64327 98.12899 -106.46267 -43.40898 34.970303 204.29752 14.866481 44.93153 -4.008091 271.5963 -124.74963 77.2407 68.40728 -72.07242600000002 100.87161 205.76822 255.40138 63.702896 -128.71538 264.34705 286.13318 -114.01722 -132.73734 27.037941 123.47751 -122.020546 -390.45416 -4.5826693 -128.2309 616.2371 -70.38239 116.04763 -289.43994 187.71 -18.066296 -51.2877 -86.482124 3.2850347 -45.15215 -47.036304 -32.963634000000006 -15.328592 -241.59938 86.233795 -237.48817000000003 265.3296 -39.84266 46.193863 81.14578 -125.37711000000002 33.25695 124.82041 -419.5086 38.021008 35.192726 373.53003 -3.7867835 -43.437466 -172.08276 -98.22876 36.338936 -38.58463 -193.40392 78.37619000000002 78.84905 434.20212 -146.12195 -162.63454 3.6361341 2.931182 -52.130943 -320.54974 1.2364956 -183.0687 -43.249397 272.12506 -155.33177 5.2083855 -53.970066 -88.29254 8.232463000000001 90.63111 -135.98694 13.230386 135.06268 99.31506 104.74787 -385.68878 73.9305 49.65188 -7.3208103000000015 82.82545999999998 -46.67924 -216.65302000000003 50.97595 -46.477573 78.451256 9.6477 118.63219 -11.570085 -144.6759 -105.73389 -60.98639 105.13057 -31.472305 -107.84316 11.8382 40.733543 10.327163 12.320209 -114.53657 23.319326 -97.38519 8.87068 -8.940396 57.15833000000001 -8.20926 66.14471999999999 -12.400623 -16.413432999999998 -17.041254000000002 14.412138 9.691103 10.298369 13.631309 81.037476 94.93191 -15.205703 85.05109 127.43253 -36.289505 21.368286 -17.789831 -2.0346706 -15.230356 -18.766258 52.214935 51.888607 -7.528903 -5.2381907 -85.736786 41.54812 -23.745317 -30.948145 -15.887665 -10.301551 -3.2343862 -27.699682 66.669106 26.697716 -43.798054 2.6450047000000003 -105.60474 4.2985773 -100.95796 -22.753347 23.240225 -150.57957 64.62065 81.83358 -8.862553 74.91792 -57.55760600000001 26.10486 33.15033 21.47575 -63.14984499999999 40.58733400000001 12.731815 54.68616 3.1322482000000003 48.094505 -4.1349316 44.390137 -10.962902 -54.658005 45.028175 -5.3601556 -7.2773949999999985 27.941538 77.406715 -96.956566 22.106827 -4.2359185 22.571615 162.05144 -44.70061 -60.43854 -16.747915 4.0957685 21.847244 16.598522 -28.969406 -110.72642 -1.3499446000000002 44.3118 -12.9687 31.786129 10.34372 -32.44977 65.60018000000001 11.461426 47.444176 -38.489773 13.393214000000002 49.61897 -22.57062 -8.633493 62.14531700000001 -16.262712 -23.316154 -83.48094 -0.5552438000000001 -35.69051 -65.76294 40.406708 -79.281876 31.064474 8.811256 62.143085 -7.4792614 50.703865 -2.4264996 25.343798 -51.685856 -51.728737 88.38264000000002
